{"learner":{"attributes":{"scikit_learn":"{\"_estimator_type\": \"regressor\"}"},"feature_names":[],"feature_types":[],"gradient_booster":{"model":{"gbtree_model_param":{"num_parallel_tree":"1","num_trees":"100"},"iteration_indptr":[0,1,2,3,4,5,6,7,8,9,10,11,12,13,14,15,16,17,18,19,20,21,22,23,24,25,26,27,28,29,30,31,32,33,34,35,36,37,38,39,40,41,42,43,44,45,46,47,48,49,50,51,52,53,54,55,56,57,58,59,60,61,62,63,64,65,66,67,68,69,70,71,72,73,74,75,76,77,78,79,80,81,82,83,84,85,86,87,88,89,90,91,92,93,94,95,96,97,98,99,100],"tree_info":[0,0,0,0,0,0,0,0,0,0,0,0,0,0,0,0,0,0,0,0,0,0,0,0,0,0,0,0,0,0,0,0,0,0,0,0,0,0,0,0,0,0,0,0,0,0,0,0,0,0,0,0,0,0,0,0,0,0,0,0,0,0,0,0,0,0,0,0,0,0,0,0,0,0,0,0,0,0,0,0,0,0,0,0,0,0,0,0,0,0,0,0,0,0,0,0,0,0,0,0],"trees":[{"base_weights":[-6.4498394E-8,-7.396514E1,2.410298E2,-9.59174E1,4.375672E0,1.46727E2,3.2340384E2,-1.0886475E2,-7.216968E1,-6.4491763E0,5.141165E1,1.19284515E2,2.0390662E2,2.826171E2,3.747134E2,-1.147538E2,-9.695245E1,-8.0809975E1,-6.1229435E1,-1.8951351E1,8.51644E0,3.7780838E1,6.457509E1,9.536943E1,1.4057265E2,1.8029825E2,6.637419E1,7.701433E1,9.221129E1,1.0539928E2,1.1880998E2,-3.626225E1,-3.353914E1,-3.061309E1,-2.8150454E1,-2.5585756E1,-2.2655903E1,-1.9836866E1,-5.6149303E1,-3.042684E1,-1.2176214E1,-2.5926409E0,1.2025341E1,2.4384615E1,4.8141987E1,1.4568858E1,7.0806786E1,2.608129E1,3.2034206E1,1.2748386E2,1.4849455E2,4.570421E1,5.7089603E1,-1.7884476E1,-1.5568987E1,-1.1909241E1,-8.009974E0,-5.591553E0,-2.4315457E0,-2.9029353E0,2.3655017E-1,2.4644237E0,5.4627E0,3.7020073E0,8.617754E0,1.0477203E1,1.5105439E1,1.7890226E1,2.3895206E1,1.8719408E1,3.8617664E1,3.4804417E1,4.5585133E1],"categories":[],"categories_nodes":[],"categories_segments":[],"categories_sizes":[],"default_left":[0,0,0,0,0,0,0,0,0,0,0,0,0,0,0,0,0,0,0,0,0,0,0,0,0,0,0,0,0,0,0,0,0,0,0,0,0,0,0,0,0,0,0,0,0,0,0,0,0,0,0,0,0,0,0,0,0,0,0,0,0,0,0,0,0,0,0,0,0,0,0,0,0],"id":0,"left_children":[1,3,5,7,9,11,13,15,17,19,21,23,25,27,29,31,33,35,37,39,41,43,45,47,49,51,-1,-1,-1,-1,-1,-1,-1,-1,-1,-1,-1,-1,53,55,57,59,61,63,65,-1,67,-1,-1,69,71,-1,-1,-1,-1,-1,-1,-1,-1,-1,-1,-1,-1,-1,-1,-1,-1,-1,-1,-1,-1,-1,-1],"loss_changes":[1.2443807E8,9.185642E6,1.2684464E7,1.274908E6,5.960456E5,1.177645E6,1.723152E6,1.78146E5,1.344795E5,1.7828322E5,3.6855125E4,2.51329E5,6.1228E4,2.3592E5,5.2292E4,1.9058E4,4.694E3,1.29995E4,1.257E4,3.998075E4,1.6948785E4,1.4094094E4,7.5375938E3,1.457875E4,9.377E3,1.75575E3,0E0,0E0,0E0,0E0,0E0,0E0,0E0,0E0,0E0,0E0,0E0,0E0,1.74025E3,5.5738594E3,8.47809E3,2.522523E3,7.6263438E3,2.2599414E3,2.303125E1,0E0,2.8585312E3,0E0,0E0,8.57375E2,7.7975E2,0E0,0E0,0E0,0E0,0E0,0E0,0E0,0E0,0E0,0E0,0E0,0E0,0E0,0E0,0E0,0E0,0E0,0E0,0E0,0E0,0E0,0E0],"parents":[2147483647,0,0,1,1,2,2,3,3,4,4,5,5,6,6,7,7,8,8,9,9,10,10,11,11,12,12,13,13,14,14,15,15,16,16,17,17,18,18,19,19,20,20,21,21,22,22,23,23,24,24,25,25,38,38,39,39,40,40,41,41,42,42,43,43,44,44,46,46,49,49,50,50],"right_children":[2,4,6,8,10,12,14,16,18,20,22,24,26,28,30,32,34,36,38,40,42,44,46,48,50,52,-1,-1,-1,-1,-1,-1,-1,-1,-1,-1,-1,-1,54,56,58,60,62,64,66,-1,68,-1,-1,70,72,-1,-1,-1,-1,-1,-1,-1,-1,-1,-1,-1,-1,-1,-1,-1,-1,-1,-1,-1,-1,-1,-1],"split_conditions":[5.4542154E-1,-3.1711248E-1,1.6046354E0,-6.0652685E-1,1.4495161E-1,1.0652198E0,2.2210567E0,-7.1286064E-1,-4.75248E-1,-3.694585E-2,3.3903956E-1,8.009511E-1,1.3341982E0,1.8906622E0,2.5195174E0,-7.8169906E-1,-6.6020614E-1,-5.450294E-1,-4.116709E-1,-1.4300138E-1,-7.90585E-1,-4.592458E-2,-3.2781386E-1,2.4404405E-1,9.02672E-1,-4.4528353E-1,6.637419E1,7.701433E1,9.221129E1,1.0539928E2,1.1880998E2,-3.626225E1,-3.353914E1,-3.061309E1,-2.8150454E1,-2.5585756E1,-2.2655903E1,-1.9836866E1,8.4359445E-2,-2.3480977E-1,-2.9383376E-1,3.7365485E-2,7.2040476E-2,2.1245313E-1,2.1036272E-1,1.4568858E1,4.0957147E-1,2.608129E1,3.2034206E1,-1.5075605E0,-1.3246319E0,4.570421E1,5.7089603E1,-1.7884476E1,-1.5568987E1,-1.1909241E1,-8.009974E0,-5.591553E0,-2.4315457E0,-2.9029353E0,2.3655017E-1,2.4644237E0,5.4627E0,3.7020073E0,8.617754E0,1.0477203E1,1.5105439E1,1.7890226E1,2.3895206E1,1.8719408E1,3.8617664E1,3.4804417E1,4.5585133E1],"split_indices":[0,0,0,0,0,0,0,0,0,0,0,0,0,0,0,0,0,0,0,0,1,1,1,1,0,1,0,0,0,0,0,0,0,0,0,0,0,0,1,0,1,0,0,0,1,0,0,0,0,1,1,0,0,0,0,0,0,0,0,0,0,0,0,0,0,0,0,0,0,0,0,0,0],"split_type":[0,0,0,0,0,0,0,0,0,0,0,0,0,0,0,0,0,0,0,0,0,0,0,0,0,0,0,0,0,0,0,0,0,0,0,0,0,0,0,0,0,0,0,0,0,0,0,0,0,0,0,0,0,0,0,0,0,0,0,0,0,0,0,0,0,0,0,0,0,0,0,0,0],"sum_hessian":[6.978E3,5.34E3,1.638E3,4.171E3,1.169E3,7.65E2,8.73E2,2.697E3,1.474E3,9.51E2,2.18E2,5.19E2,2.46E2,4.9E2,3.83E2,1.799E3,8.98E2,8.2E2,6.54E2,5.18E2,4.33E2,1.09E2,1.09E2,2.47E2,2.72E2,1.09E2,1.37E2,2.45E2,2.45E2,1.91E2,1.92E2,5.73E2,1.226E3,3.29E2,5.69E2,4.36E2,3.84E2,3.27E2,3.27E2,1.91E2,3.27E2,1.04E2,3.29E2,4.9E1,6E1,3.3E1,7.6E1,1.47E2,1E2,1.09E2,1.63E2,3.3E1,7.6E1,1.73E2,1.54E2,5.2E1,1.39E2,1.25E2,2.02E2,3.3E1,7.1E1,2.05E2,1.24E2,1.4E1,3.5E1,1.1E1,4.9E1,3.7E1,3.9E1,3E0,1.06E2,1.9E1,1.44E2],"tree_param":{"num_deleted":"0","num_feature":"2","num_nodes":"73","size_leaf_vector":"1"}},{"base_weights":[8.5960604E-2,-5.0142086E1,1.7502919E2,-6.697165E1,7.6473894E0,1.1258658E2,2.3101408E2,-7.680613E1,-5.1135143E1,-3.005432E0,4.4593323E1,8.997365E1,1.5033136E2,2.0395654E2,2.655342E2,-8.160914E1,-7.012602E1,-5.9000095E1,-4.3997387E1,-1.2177782E1,6.7703366E0,3.314295E1,5.5968384E1,7.1341995E1,1.0001672E2,1.3208873E2,1.622408E2,1.8853516E2,6.750346E1,6.8839836E1,8.278856E1,-2.56404E1,-2.3939507E1,-2.2022366E1,-2.0005438E1,-1.8559168E1,-1.6783007E1,-4.8474297E1,-3.966567E1,-1.8145145E1,-7.3461676E0,2.0236986E0,1.2483872E1,1.5029265E1,3.6420486E1,1.230704E1,1.7838945E1,1.948214E1,8.005735E1,2.608378E1,1.04474464E2,3.4110783E1,4.260642E1,4.075051E1,5.0458088E1,4.990813E1,5.904656E1,-1.584838E1,-1.4033793E1,-1.2472845E1,-1.008251E1,-8.47E0,-4.821827E0,-3.1989846E0,-8.088055E-1,-1.5562822E0,1.378982E0,2.8425386E0,6.5586534E0,-2.4607888E-1,5.2343125E0,9.447551E0,1.2927299E1,1.9874115E1,2.5911493E1,2.7091291E1,3.2679104E1],"categories":[],"categories_nodes":[],"categories_segments":[],"categories_sizes":[],"default_left":[0,0,0,0,0,0,0,0,0,0,0,0,0,0,0,0,0,0,0,0,0,0,0,0,0,0,0,0,0,0,0,0,0,0,0,0,0,0,0,0,0,0,0,0,0,0,0,0,0,0,0,0,0,0,0,0,0,0,0,0,0,0,0,0,0,0,0,0,0,0,0,0,0,0,0,0,0],"id":1,"left_children":[1,3,5,7,9,11,13,15,17,19,21,23,25,27,29,31,33,35,37,39,41,43,45,47,49,51,53,55,-1,-1,-1,-1,-1,-1,-1,-1,-1,57,59,61,63,65,67,69,71,-1,-1,-1,73,-1,75,-1,-1,-1,-1,-1,-1,-1,-1,-1,-1,-1,-1,-1,-1,-1,-1,-1,-1,-1,-1,-1,-1,-1,-1,-1,-1],"loss_changes":[6.1333644E7,5.274768E6,5.417016E6,6.50198E5,4.8187397E5,6.16373E5,7.11748E5,7.7343E4,8.78985E4,8.535554E4,3.383325E4,7.968775E4,3.83155E4,1.08238E5,7.0946E4,3.661E3,7.415E3,3.227E3,1.4541625E4,1.4023211E4,1.2477098E4,7.704828E3,4.66375E3,4.0624375E3,8.338E3,4.671E3,2.6185E3,1.7605E4,0E0,0E0,0E0,0E0,0E0,0E0,0E0,0E0,0E0,5.764375E2,3.6598125E3,4.1247734E3,4.182297E3,4.7180137E3,5.6901914E3,8.959292E2,2.4895469E3,0E0,0E0,0E0,3.353125E1,0E0,3.92775E3,0E0,0E0,0E0,0E0,0E0,0E0,0E0,0E0,0E0,0E0,0E0,0E0,0E0,0E0,0E0,0E0,0E0,0E0,0E0,0E0,0E0,0E0,0E0,0E0,0E0,0E0],"parents":[2147483647,0,0,1,1,2,2,3,3,4,4,5,5,6,6,7,7,8,8,9,9,10,10,11,11,12,12,13,13,14,14,15,15,16,16,17,17,18,18,19,19,20,20,21,21,22,22,23,23,24,24,25,25,26,26,27,27,37,37,38,38,39,39,40,40,41,41,42,42,43,43,44,44,48,48,50,50],"right_children":[2,4,6,8,10,12,14,16,18,20,22,24,26,28,30,32,34,36,38,40,42,44,46,48,50,52,54,56,-1,-1,-1,-1,-1,-1,-1,-1,-1,58,60,62,64,66,68,70,72,-1,-1,-1,74,-1,76,-1,-1,-1,-1,-1,-1,-1,-1,-1,-1,-1,-1,-1,-1,-1,-1,-1,-1,-1,-1,-1,-1,-1,-1,-1,-1],"split_conditions":[6.073219E-1,-2.8540415E-1,1.6555388E0,-6.165866E-1,2.1245313E-1,1.1319568E0,2.2501106E0,-7.3835933E-1,-5.0729614E-1,-3.694585E-2,4.0957147E-1,8.009511E-1,-2.3931342E-1,2.0475225E0,-8.875848E-1,-8.005243E-1,-6.776137E-1,-5.700905E-1,-4.3422619E-1,-1.137813E-1,1.6866754E-1,-1.0779856E0,-6.533529E-1,2.1036272E-1,-3.5666913E-1,1.4033892E0,1.2613289E0,-5.359615E-1,6.750346E1,6.8839836E1,8.278856E1,-2.56404E1,-2.3939507E1,-2.2022366E1,-2.0005438E1,-1.8559168E1,-1.6783007E1,-5.265727E-1,-3.636497E-1,-1.0456291E0,1.8807478E-1,3.7365485E-2,1.01378255E-1,2.586054E-1,5.023703E-1,1.230704E1,1.7838945E1,1.948214E1,6.5639204E-1,2.608378E1,8.706257E-1,3.4110783E1,4.260642E1,4.075051E1,5.0458088E1,4.990813E1,5.904656E1,-1.584838E1,-1.4033793E1,-1.2472845E1,-1.008251E1,-8.47E0,-4.821827E0,-3.1989846E0,-8.088055E-1,-1.5562822E0,1.378982E0,2.8425386E0,6.5586534E0,-2.4607888E-1,5.2343125E0,9.447551E0,1.2927299E1,1.9874115E1,2.5911493E1,2.7091291E1,3.2679104E1],"split_indices":[0,0,0,0,0,0,0,0,0,0,0,0,1,0,1,0,0,0,0,0,1,1,1,1,1,0,0,1,0,0,0,0,0,0,0,0,0,1,0,1,1,0,0,0,1,0,0,0,0,0,0,0,0,0,0,0,0,0,0,0,0,0,0,0,0,0,0,0,0,0,0,0,0,0,0,0,0],"split_type":[0,0,0,0,0,0,0,0,0,0,0,0,0,0,0,0,0,0,0,0,0,0,0,0,0,0,0,0,0,0,0,0,0,0,0,0,0,0,0,0,0,0,0,0,0,0,0,0,0,0,0,0,0,0,0,0,0,0,0,0,0,0,0,0,0,0,0,0,0,0,0,0,0,0,0,0,0],"sum_hessian":[6.978E3,5.422E3,1.556E3,4.199E3,1.223E3,7.37E2,8.19E2,2.588E3,1.611E3,9.5E2,2.73E2,4.63E2,2.74E2,4.63E2,3.56E2,1.499E3,1.089E3,7.63E2,8.48E2,4.9E2,4.6E2,1.38E2,1.35E2,1.65E2,2.98E2,1.13E2,1.61E2,2.73E2,1.9E2,8.5E1,2.71E2,4.64E2,1.035E3,5.47E2,5.42E2,3.84E2,3.79E2,4.12E2,4.36E2,2.18E2,2.72E2,2.52E2,2.08E2,2.2E1,1.16E2,2.8E1,1.07E2,1E2,6.5E1,8.1E1,2.17E2,4.4E1,6.9E1,3.4E1,1.27E2,8E1,1.93E2,1.07E2,3.05E2,3.27E2,1.09E2,3.5E1,1.83E2,1.58E2,1.14E2,6.6E1,1.86E2,1.59E2,4.9E1,3E0,1.9E1,7E1,4.6E1,2.4E1,4.1E1,5.7E1,1.6E2],"tree_param":{"num_deleted":"0","num_feature":"2","num_nodes":"77","size_leaf_vector":"1"}},{"base_weights":[1.3427785E-1,-3.430924E1,1.2586105E2,-4.6922867E1,7.1060314E0,8.6345695E1,1.66598E2,-5.3254105E1,-3.4827785E1,-2.6328928E0,3.2292755E1,6.70848E1,1.1174407E2,1.4837436E2,1.8880194E2,-5.6954517E1,-4.8222332E1,-3.8782417E1,-2.8752483E1,-9.373006E0,3.4082181E0,2.214562E1,4.0897606E1,5.8031628E1,7.583164E1,1.00386024E2,3.687057E1,3.9248425E1,1.585267E2,1.7751572E2,6.281054E1,-1.7540129E1,-1.6123158E1,-5.0543465E1,-4.5487812E1,-4.1115353E1,-3.5718555E1,-3.1188974E1,-2.530529E1,-1.5052284E1,-6.838807E0,-2.1813118E0,5.8952327E0,8.720638E0,2.4576542E1,3.457477E1,1.3422628E1,1.3343596E1,6.137821E1,2.0754612E1,2.5181469E1,2.6342962E1,3.2541893E1,4.3085037E1,5.0165833E1,4.811209E1,5.7487072E1,-1.5845351E1,-1.4353862E1,-1.4261025E1,-1.2913436E1,-1.2922805E1,-1.1215123E1,-1.0775438E1,-5.1378307E0,-9.818781E0,-8.533489E0,-8.244706E0,-5.715123E0,-5.430507E0,-2.7634945E0,-2.5196981E0,-5.360179E-1,-2.1809697E0,5.6472283E-2,7.554576E-1,2.777212E0,-5.266852E-1,3.742533E0,6.02998E0,8.629803E0,5.761059E0,1.0612652E1,1.5337413E1,1.925271E1],"categories":[],"categories_nodes":[],"categories_segments":[],"categories_sizes":[],"default_left":[0,0,0,0,0,0,0,0,0,0,0,0,0,0,0,0,0,0,0,0,0,0,0,0,0,0,0,0,0,0,0,0,0,0,0,0,0,0,0,0,0,0,0,0,0,0,0,0,0,0,0,0,0,0,0,0,0,0,0,0,0,0,0,0,0,0,0,0,0,0,0,0,0,0,0,0,0,0,0,0,0,0,0,0,0],"id":2,"left_children":[1,3,5,7,9,11,13,15,17,19,21,23,25,27,29,31,33,35,37,39,41,43,45,47,49,51,-1,-1,53,55,-1,-1,-1,57,59,61,63,65,67,69,71,73,75,77,79,81,-1,-1,83,-1,-1,-1,-1,-1,-1,-1,-1,-1,-1,-1,-1,-1,-1,-1,-1,-1,-1,-1,-1,-1,-1,-1,-1,-1,-1,-1,-1,-1,-1,-1,-1,-1,-1,-1,-1],"loss_changes":[3.0226684E7,2.862544E6,2.401828E6,3.19769E5,3.1405828E5,3.66249E5,2.70606E5,4.85505E4,3.3626E4,3.7655164E4,3.0265562E4,3.0204E4,2.923025E4,5.2296E4,3.9201E4,4.5405E3,5.1525E3,4.7715E3,4.0318125E3,6.186547E3,6.7966646E3,5.2030938E3,3.1202188E3,7.203E3,5.99825E3,7.561125E3,0E0,0E0,9.035E3,2.2232E4,0E0,0E0,0E0,1.313E3,7.01875E2,1.9674375E3,8.1340625E2,4.7221875E2,2.7854375E3,2.2198555E3,2.3811787E3,1.8220774E3,3.8143682E3,1.0838867E3,2.0474531E3,2.6839844E2,0E0,0E0,1.681375E3,0E0,0E0,0E0,0E0,0E0,0E0,0E0,0E0,0E0,0E0,0E0,0E0,0E0,0E0,0E0,0E0,0E0,0E0,0E0,0E0,0E0,0E0,0E0,0E0,0E0,0E0,0E0,0E0,0E0,0E0,0E0,0E0,0E0,0E0,0E0,0E0],"parents":[2147483647,0,0,1,1,2,2,3,3,4,4,5,5,6,6,7,7,8,8,9,9,10,10,11,11,12,12,13,13,14,14,15,15,16,16,17,17,18,18,19,19,20,20,21,21,22,22,23,23,24,24,25,25,28,28,29,29,33,33,34,34,35,35,36,36,37,37,38,38,39,39,40,40,41,41,42,42,43,43,44,44,45,45,48,48],"right_children":[2,4,6,8,10,12,14,16,18,20,22,24,26,28,30,32,34,36,38,40,42,44,46,48,50,52,-1,-1,54,56,-1,-1,-1,58,60,62,64,66,68,70,72,74,76,78,80,82,-1,-1,84,-1,-1,-1,-1,-1,-1,-1,-1,-1,-1,-1,-1,-1,-1,-1,-1,-1,-1,-1,-1,-1,-1,-1,-1,-1,-1,-1,-1,-1,-1,-1,-1,-1,-1,-1,-1],"split_conditions":[6.421577E-1,-2.8540415E-1,1.7371469E0,-5.976427E-1,1.4495161E-1,1.1946753E0,2.3280218E0,-7.3041874E-1,-4.5728186E-1,-5.6263514E-2,4.0957147E-1,9.02672E-1,1.584439E-2,-4.0985352E-1,2.6858344E0,-7.6473284E-1,-6.494451E-1,-5.233971E-1,2.33299E-1,-1.6151479E-1,-4.625592E-1,-1.0779856E0,-1.5267922E-1,-6.1172926E-1,1.5609716E-1,1.5342716E0,3.687057E1,3.9248425E1,1.9812146E0,-1.3014221E-1,6.281054E1,-1.7540129E1,-1.6123158E1,1.4951257E-1,2.5537185E-2,3.849571E-1,1.8246236E0,-3.8704422E-1,-3.704265E-1,6.7198354E-1,8.775667E-1,2.6904345E-2,5.1062573E-2,2.586054E-1,2.5572783E-1,-1.6776335E0,1.3422628E1,1.3343596E1,6.8134433E-1,2.0754612E1,2.5181469E1,2.6342962E1,3.2541893E1,4.3085037E1,5.0165833E1,4.811209E1,5.7487072E1,-1.5845351E1,-1.4353862E1,-1.4261025E1,-1.2913436E1,-1.2922805E1,-1.1215123E1,-1.0775438E1,-5.1378307E0,-9.818781E0,-8.533489E0,-8.244706E0,-5.715123E0,-5.430507E0,-2.7634945E0,-2.5196981E0,-5.360179E-1,-2.1809697E0,5.6472283E-2,7.554576E-1,2.777212E0,-5.266852E-1,3.742533E0,6.02998E0,8.629803E0,5.761059E0,1.0612652E1,1.5337413E1,1.925271E1],"split_indices":[0,0,0,0,0,0,0,0,0,0,0,0,1,1,0,0,0,0,1,0,1,1,1,1,1,0,0,0,0,1,0,0,0,1,1,1,1,0,0,1,1,0,0,0,1,1,0,0,0,0,0,0,0,0,0,0,0,0,0,0,0,0,0,0,0,0,0,0,0,0,0,0,0,0,0,0,0,0,0,0,0,0,0,0,0],"split_type":[0,0,0,0,0,0,0,0,0,0,0,0,0,0,0,0,0,0,0,0,0,0,0,0,0,0,0,0,0,0,0,0,0,0,0,0,0,0,0,0,0,0,0,0,0,0,0,0,0,0,0,0,0,0,0,0,0,0,0,0,0,0,0,0,0,0,0,0,0,0,0,0,0,0,0,0,0,0,0,0,0,0,0,0,0],"sum_hessian":[6.978E3,5.478E3,1.5E3,4.199E3,1.279E3,7.63E2,7.37E2,2.754E3,1.445E3,9.23E2,3.56E2,4.36E2,3.27E2,4.09E2,3.28E2,1.581E3,1.173E3,8.72E2,5.73E2,4.36E2,4.87E2,1.65E2,1.91E2,2.18E2,2.18E2,1.67E2,1.6E2,1.55E2,2.54E2,2.18E2,1.1E2,1.063E3,5.18E2,6.25E2,5.48E2,4.88E2,3.84E2,3.31E2,2.42E2,1.33E2,3.03E2,1.5E2,3.37E2,2.6E1,1.39E2,7.6E1,1.15E2,4.6E1,1.72E2,1.25E2,9.3E1,7E1,9.7E1,1E2,1.54E2,1.04E2,1.14E2,3.29E2,2.96E2,2.88E2,2.6E2,3.13E2,1.75E2,3.79E2,5E0,2.05E2,1.26E2,1.77E2,6.5E1,8.6E1,4.7E1,2.31E2,7.2E1,4.7E1,1.03E2,1.69E2,1.68E2,7E0,1.9E1,7E1,6.9E1,5E0,7.1E1,4.1E1,1.31E2],"tree_param":{"num_deleted":"0","num_feature":"2","num_nodes":"85","size_leaf_vector":"1"}},{"base_weights":[1.4628938E-1,-2.4891449E1,8.550859E1,-3.288491E1,3.1531513E0,5.5709167E1,1.1512503E2,-3.714076E1,-2.400901E1,-2.2459867E0,1.9179224E1,4.3845116E1,7.477432E1,1.0317049E2,1.3421944E2,-3.93568E1,-3.2547043E1,-2.6557251E1,-1.9847752E1,-8.720229E0,5.8555603E-1,1.2170979E1,2.4847599E1,3.748173E1,5.154829E1,6.2866512E1,7.9935555E1,9.524682E1,1.1614351E2,1.24037445E2,4.358013E1,-4.1468056E1,-3.773583E1,-1.0407186E1,-9.2668085E0,-3.0327616E1,-2.5242441E1,-2.3213657E1,-1.8023521E1,-1.2548391E1,-6.0598235E0,-2.4193301E0,3.5315342E0,9.840785E0,6.15288E0,5.221406E0,2.6495125E1,3.2180122E1,4.170619E1,4.5778812E1,1.6656212E1,1.1184874E1,1.9158752E1,6.8393326E1,2.5873802E1,2.5138369E1,1.01538734E2,3.1001242E1,3.761717E1,3.1868977E1,3.9147095E1,-1.3228859E1,-1.2130588E1,-1.1724611E1,-1.0978179E1,-1.0193933E1,-8.681095E0,-8.148586E0,-7.149898E0,-7.8404336E0,-6.6229267E0,-5.8866477E0,-4.501392E0,-5.272856E0,-3.395699E0,-2.7736464E0,-1.382834E0,-1.4804341E0,-9.075895E-3,2.2893186E-1,1.9206613E0,5.241599E-1,3.4267542E0,7.548329E0,9.551795E0,8.564106E0,1.122405E1,1.0745693E1,1.3412146E1,1.1080252E1,1.4381513E1,1.7998974E1,2.3756557E1,1.717505E1,3.0935652E1],"categories":[],"categories_nodes":[],"categories_segments":[],"categories_sizes":[],"default_left":[0,0,0,0,0,0,0,0,0,0,0,0,0,0,0,0,0,0,0,0,0,0,0,0,0,0,0,0,0,0,0,0,0,0,0,0,0,0,0,0,0,0,0,0,0,0,0,0,0,0,0,0,0,0,0,0,0,0,0,0,0,0,0,0,0,0,0,0,0,0,0,0,0,0,0,0,0,0,0,0,0,0,0,0,0,0,0,0,0,0,0,0,0,0,0],"id":3,"left_children":[1,3,5,7,9,11,13,15,17,19,21,23,25,27,29,31,33,35,37,39,41,43,45,47,49,51,53,55,57,59,-1,61,63,-1,-1,65,67,69,71,73,75,77,79,81,-1,-1,83,85,87,89,-1,-1,-1,91,-1,-1,93,-1,-1,-1,-1,-1,-1,-1,-1,-1,-1,-1,-1,-1,-1,-1,-1,-1,-1,-1,-1,-1,-1,-1,-1,-1,-1,-1,-1,-1,-1,-1,-1,-1,-1,-1,-1,-1,-1],"loss_changes":[1.4918198E7,1.2099675E6,1.390667E6,1.577615E5,1.0370239E5,1.75638E5,1.67167E5,2.759925E4,1.3936625E4,1.6448996E4,1.1694641E4,2.2086812E4,1.353525E4,3.9513E4,1.59525E4,4.9685E3,2.2295625E3,3.4134375E3,2.7867656E3,2.7043184E3,5.5412495E3,2.460164E3,1.5744141E3,4.7497188E3,2.4775625E3,6.51875E1,9.1785E3,1.3901E4,8.5945E3,4.98325E3,0E0,4.4E2,2.46875E2,0E0,0E0,9.8515625E1,1.0598125E3,2.1E1,1.3609375E3,4.871621E2,7.1051074E2,1.8628282E3,2.5064426E3,1.3754443E3,0E0,0E0,1.5421875E2,1.3086328E3,1.01340625E3,4.4E1,0E0,0E0,0E0,2.31925E3,0E0,0E0,7.812625E3,0E0,0E0,0E0,0E0,0E0,0E0,0E0,0E0,0E0,0E0,0E0,0E0,0E0,0E0,0E0,0E0,0E0,0E0,0E0,0E0,0E0,0E0,0E0,0E0,0E0,0E0,0E0,0E0,0E0,0E0,0E0,0E0,0E0,0E0,0E0,0E0,0E0,0E0],"parents":[2147483647,0,0,1,1,2,2,3,3,4,4,5,5,6,6,7,7,8,8,9,9,10,10,11,11,12,12,13,13,14,14,15,15,16,16,17,17,18,18,19,19,20,20,21,21,22,22,23,23,24,24,25,25,26,26,27,27,28,28,29,29,31,31,32,32,35,35,36,36,37,37,38,38,39,39,40,40,41,41,42,42,43,43,46,46,47,47,48,48,49,49,53,53,56,56],"right_children":[2,4,6,8,10,12,14,16,18,20,22,24,26,28,30,32,34,36,38,40,42,44,46,48,50,52,54,56,58,60,-1,62,64,-1,-1,66,68,70,72,74,76,78,80,82,-1,-1,84,86,88,90,-1,-1,-1,92,-1,-1,94,-1,-1,-1,-1,-1,-1,-1,-1,-1,-1,-1,-1,-1,-1,-1,-1,-1,-1,-1,-1,-1,-1,-1,-1,-1,-1,-1,-1,-1,-1,-1,-1,-1,-1,-1,-1,-1,-1],"split_conditions":[5.73934E-1,-2.8540415E-1,1.6883407E0,-5.852897E-1,1.3312525E-1,1.1319568E0,2.3893397E0,-7.0099777E-1,-4.4612756E-1,-8.934504E-2,3.3903956E-1,8.706257E-1,-4.4528353E-1,4.3388626E-1,2.6059296E0,-7.728756E-1,-3.18176E-1,-6.7895395E-1,-4.8619792E-1,-3.7490103E-2,2.5537185E-2,1.0568595E0,-7.720615E-1,-8.2853444E-2,-7.057361E-2,-1.5710387E0,1.4033892E0,1.9491658E0,1.9812146E0,-6.7895395E-1,4.358013E1,-8.1966555E-1,-9.478268E-2,-1.0407186E1,-9.2668085E0,-1.7305232E0,-5.359907E-1,-1.3246319E0,-3.8146275E-1,-2.0089021E-1,-1.88662E-1,1.4308332E-3,2.6904345E-2,-1.1732461E0,6.15288E0,5.221406E0,1.4523731E0,7.372361E-1,6.5639204E-1,9.6922725E-1,1.6656212E1,1.1184874E1,1.9158752E1,9.1395885E-1,2.5873802E1,2.5138369E1,-1.7695421E0,3.1001242E1,3.761717E1,3.1868977E1,3.9147095E1,-1.3228859E1,-1.2130588E1,-1.1724611E1,-1.0978179E1,-1.0193933E1,-8.681095E0,-8.148586E0,-7.149898E0,-7.8404336E0,-6.6229267E0,-5.8866477E0,-4.501392E0,-5.272856E0,-3.395699E0,-2.7736464E0,-1.382834E0,-1.4804341E0,-9.075895E-3,2.2893186E-1,1.9206613E0,5.241599E-1,3.4267542E0,7.548329E0,9.551795E0,8.564106E0,1.122405E1,1.0745693E1,1.3412146E1,1.1080252E1,1.4381513E1,1.7998974E1,2.3756557E1,1.717505E1,3.0935652E1],"split_indices":[0,0,0,0,0,0,0,0,0,0,0,0,1,1,0,0,1,1,1,1,1,1,1,1,1,1,0,0,0,1,0,0,1,0,0,1,0,1,0,0,0,0,0,1,0,0,1,0,0,0,0,0,0,1,0,0,1,0,0,0,0,0,0,0,0,0,0,0,0,0,0,0,0,0,0,0,0,0,0,0,0,0,0,0,0,0,0,0,0,0,0,0,0,0,0],"split_type":[0,0,0,0,0,0,0,0,0,0,0,0,0,0,0,0,0,0,0,0,0,0,0,0,0,0,0,0,0,0,0,0,0,0,0,0,0,0,0,0,0,0,0,0,0,0,0,0,0,0,0,0,0,0,0,0,0,0,0,0,0,0,0,0,0,0,0,0,0,0,0,0,0,0,0,0,0,0,0,0,0,0,0,0,0,0,0,0,0,0,0,0,0,0,0],"sum_hessian":[6.978E3,5.396E3,1.582E3,4.199E3,1.197E3,7.9E2,7.92E2,2.836E3,1.363E3,8.96E2,3.01E2,4.89E2,3.01E2,4.91E2,3.01E2,1.908E3,9.28E2,8.42E2,5.21E2,2.72E2,6.24E2,1.36E2,1.65E2,2.71E2,2.18E2,9.5E1,2.06E2,3.1E2,1.81E2,1.63E2,1.38E2,8.18E2,1.09E3,3.96E2,5.32E2,2.12E2,6.3E2,1.79E2,3.42E2,1.1E2,1.62E2,3.09E2,3.15E2,1.08E2,2.8E1,3.2E1,1.33E2,1.24E2,1.47E2,9.4E1,1.24E2,5E0,9E1,7.7E1,1.29E2,1.15E2,1.95E2,8.1E1,1E2,4.8E1,1.15E2,2.19E2,5.99E2,4.85E2,6.05E2,5.2E1,1.6E2,2.59E2,3.71E2,4.4E1,1.35E2,2.2E2,1.22E2,1.9E1,9.1E1,4.9E1,1.13E2,1.5E2,1.59E2,1.61E2,1.54E2,1.8E1,9E1,1.11E2,2.2E1,7.7E1,4.7E1,5.4E1,9.3E1,2.2E1,7.2E1,4.7E1,3E1,8E0,1.87E2],"tree_param":{"num_deleted":"0","num_feature":"2","num_nodes":"95","size_leaf_vector":"1"}},{"base_weights":[1.5026063E-1,-1.7654955E1,5.944198E1,-2.322118E1,1.2091426E0,3.471901E1,7.758091E1,-2.6882984E1,-1.831675E1,-2.314866E0,1.2118918E1,2.8457664E1,4.575158E1,6.405981E1,8.9408775E1,-2.8629522E1,-2.4987888E1,-2.0495695E1,-1.5220087E1,-6.8166733E0,1.5409485E-1,7.1500006E0,1.6165588E1,2.643062E1,3.7791695E1,4.0772297E1,1.7032223E1,5.7644714E1,7.315743E1,8.145953E1,9.83649E1,-9.205809E0,-2.8008862E1,-7.7772384E0,-2.3137535E1,-2.1332455E1,-1.793274E1,-1.7016975E1,-1.4081913E1,-8.950276E0,-3.7001126E0,-1.6148164E0,2.920195E0,5.096082E0,3.9485617E0,1.092581E1,1.7553919E1,2.1722246E1,3.0057842E1,8.504716E0,1.1951176E1,1.0141854E1,1.2706815E1,1.415097E1,5.9963978E1,2.0605505E1,2.447836E1,2.3092562E1,3.0243675E1,2.7486473E1,3.3567234E1,-8.620046E0,-7.990287E0,-7.270658E0,-6.408688E0,-6.903997E0,-6.14358E0,-5.892474E0,-4.93215E0,-5.4695396E0,-4.461323E0,-4.619688E0,-3.8002775E0,-3.704179E0,-2.1667075E0,-1.4122516E0,-2.0620431E-1,-1.5450886E0,-2.149157E-1,2.3932008E-1,1.4789656E0,-6.352079E-1,1.9049121E0,1.8574872E0,3.5472198E0,4.8952436E0,6.746725E0,4.764909E0,6.8471556E0,7.284277E0,9.464848E0,1.6613401E1,1.9894163E1],"categories":[],"categories_nodes":[],"categories_segments":[],"categories_sizes":[],"default_left":[0,0,0,0,0,0,0,0,0,0,0,0,0,0,0,0,0,0,0,0,0,0,0,0,0,0,0,0,0,0,0,0,0,0,0,0,0,0,0,0,0,0,0,0,0,0,0,0,0,0,0,0,0,0,0,0,0,0,0,0,0,0,0,0,0,0,0,0,0,0,0,0,0,0,0,0,0,0,0,0,0,0,0,0,0,0,0,0,0,0,0,0,0],"id":4,"left_children":[1,3,5,7,9,11,13,15,17,19,21,23,25,27,29,31,33,35,37,39,41,43,45,47,49,51,-1,53,55,57,59,-1,61,-1,63,65,67,69,71,73,75,77,79,81,-1,83,85,87,89,-1,-1,-1,-1,-1,91,-1,-1,-1,-1,-1,-1,-1,-1,-1,-1,-1,-1,-1,-1,-1,-1,-1,-1,-1,-1,-1,-1,-1,-1,-1,-1,-1,-1,-1,-1,-1,-1,-1,-1,-1,-1,-1,-1],"loss_changes":[7.3687925E6,5.6367775E5,7.202045E5,7.3948E4,4.7086137E4,4.5947938E4,1.428435E5,7.13225E3,1.166475E4,1.0293343E4,5.896578E3,7.3072188E3,1.11866875E4,2.1287125E4,2.708625E4,7.066875E2,1.3836875E3,1.8456562E3,1.2676562E3,2.1479219E3,2.9356143E3,1.6122402E3,1.0012344E3,5.5635938E3,3.386172E2,4.7671875E2,0E0,3.5121875E3,1.0745625E3,1.541125E4,1.0453E4,0E0,1.849375E2,0E0,2.5026562E2,6.453125E2,3.451797E2,4.6141406E2,6.562031E2,1.0495479E3,4.064945E2,1.1588667E3,9.94192E2,9.448684E2,0E0,8.4132324E1,4.1409375E2,6.795547E2,9.832344E2,0E0,0E0,0E0,0E0,0E0,2.4429375E3,0E0,0E0,0E0,0E0,0E0,0E0,0E0,0E0,0E0,0E0,0E0,0E0,0E0,0E0,0E0,0E0,0E0,0E0,0E0,0E0,0E0,0E0,0E0,0E0,0E0,0E0,0E0,0E0,0E0,0E0,0E0,0E0,0E0,0E0,0E0,0E0,0E0,0E0],"parents":[2147483647,0,0,1,1,2,2,3,3,4,4,5,5,6,6,7,7,8,8,9,9,10,10,11,11,12,12,13,13,14,14,15,15,16,16,17,17,18,18,19,19,20,20,21,21,22,22,23,23,24,24,25,25,27,27,28,28,29,29,30,30,32,32,34,34,35,35,36,36,37,37,38,38,39,39,40,40,41,41,42,42,43,43,45,45,46,46,47,47,48,48,54,54],"right_children":[2,4,6,8,10,12,14,16,18,20,22,24,26,28,30,32,34,36,38,40,42,44,46,48,50,52,-1,54,56,58,60,-1,62,-1,64,66,68,70,72,74,76,78,80,82,-1,84,86,88,90,-1,-1,-1,-1,-1,92,-1,-1,-1,-1,-1,-1,-1,-1,-1,-1,-1,-1,-1,-1,-1,-1,-1,-1,-1,-1,-1,-1,-1,-1,-1,-1,-1,-1,-1,-1,-1,-1,-1,-1,-1,-1,-1,-1],"split_conditions":[5.580523E-1,-3.4025908E-1,1.5342716E0,-6.336548E-1,1.1561533E-1,1.0351257E0,2.121504E0,-7.5021297E-1,-4.918708E-1,-8.934504E-2,2.9319668E-1,8.866592E-1,7.116066E-1,2.6350677E-1,-4.592458E-2,-8.1365514E-1,5.899787E-1,7.3665816E-1,-2.3931342E-1,5.369214E-1,2.891011E-1,7.762947E-1,-7.720615E-1,7.372361E-1,6.273231E-1,-8.875848E-1,1.7032223E1,-1.062161E0,1.0253145E0,2.763161E0,2.5668044E0,-9.205809E0,4.1786912E-1,-7.7772384E0,-6.96041E-1,-8.3547544E-1,-5.83002E-1,-4.0426895E-1,-4.3422619E-1,-2.0089021E-1,1.4126538E0,-1.1732461E0,1.3494139E-2,-1.1732461E0,3.9485617E0,3.3903956E-1,1.4523731E0,-9.327158E-1,-6.7895395E-1,8.504716E0,1.1951176E1,1.0141854E1,1.2706815E1,1.415097E1,1.8021266E0,2.0605505E1,2.447836E1,2.3092562E1,3.0243675E1,2.7486473E1,3.3567234E1,-8.620046E0,-7.990287E0,-7.270658E0,-6.408688E0,-6.903997E0,-6.14358E0,-5.892474E0,-4.93215E0,-5.4695396E0,-4.461323E0,-4.619688E0,-3.8002775E0,-3.704179E0,-2.1667075E0,-1.4122516E0,-2.0620431E-1,-1.5450886E0,-2.149157E-1,2.3932008E-1,1.4789656E0,-6.352079E-1,1.9049121E0,1.8574872E0,3.5472198E0,4.8952436E0,6.746725E0,4.764909E0,6.8471556E0,7.284277E0,9.464848E0,1.6613401E1,1.9894163E1],"split_indices":[0,0,0,0,0,0,0,0,0,0,0,1,1,1,1,0,1,1,1,1,1,1,1,0,0,1,0,1,1,0,0,0,1,0,0,1,0,0,0,0,1,1,0,1,0,0,1,1,1,0,0,0,0,0,0,0,0,0,0,0,0,0,0,0,0,0,0,0,0,0,0,0,0,0,0,0,0,0,0,0,0,0,0,0,0,0,0,0,0,0,0,0,0],"split_type":[0,0,0,0,0,0,0,0,0,0,0,0,0,0,0,0,0,0,0,0,0,0,0,0,0,0,0,0,0,0,0,0,0,0,0,0,0,0,0,0,0,0,0,0,0,0,0,0,0,0,0,0,0,0,0,0,0,0,0,0,0,0,0,0,0,0,0,0,0,0,0,0,0,0,0,0,0,0,0,0,0,0,0,0,0,0,0,0,0,0,0,0,0],"sum_hessian":[6.978E3,5.367E3,1.611E3,4.144E3,1.223E3,6.83E2,9.28E2,2.37E3,1.774E3,9.25E2,2.98E2,4.38E2,2.45E2,4.36E2,4.92E2,1.226E3,1.144E3,1.038E3,7.36E2,3.27E2,5.98E2,1.35E2,1.63E2,3.63E2,7.5E1,1.72E2,7.3E1,2.6E2,1.76E2,2.66E2,2.26E2,2.73E2,9.53E2,7.51E2,3.93E2,7.77E2,2.61E2,2.8E2,4.56E2,1.93E2,1.34E2,3.65E2,2.33E2,1.02E2,3.3E1,3.6E1,1.27E2,1.61E2,2.02E2,1.6E1,5.9E1,3.6E1,1.36E2,5.1E1,2.09E2,1.21E2,5.5E1,2.2E2,4.6E1,1.56E2,7E1,6.11E2,3.42E2,2.35E2,1.58E2,2.53E2,5.24E2,1.16E2,1.45E2,1.74E2,1.06E2,2.31E2,2.25E2,6.3E1,1.3E2,1E2,3.4E1,7.3E1,2.92E2,1.14E2,1.19E2,1.5E1,8.7E1,7E0,2.9E1,1.05E2,2.2E1,2.8E1,1.33E2,4.5E1,1.57E2,1.27E2,8.2E1],"tree_param":{"num_deleted":"0","num_feature":"2","num_nodes":"93","size_leaf_vector":"1"}},{"base_weights":[1.3728866E-1,-1.2648961E1,4.09212E1,-1.6337921E1,1.1635539E-2,2.3050533E1,5.4169235E1,-1.8740393E1,-1.2773577E1,-2.7172575E0,5.335295E0,1.8299812E1,2.9460817E1,4.4862995E1,6.2818172E1,-1.99873E1,-1.7299948E1,-1.4534832E1,-1.10494E1,-6.726864E0,-1.4096067E0,3.4192398E0,9.128176E0,1.6989496E1,7.994348E0,2.673128E1,3.9348095E1,4.0370728E1,5.124329E1,5.9437634E1,7.88011E1,-6.593876E0,-1.96276E1,-5.697177E0,-1.6678717E1,-1.6094975E1,-1.3670412E1,-1.1563165E1,-8.219808E0,-1.1069049E1,-5.273136E0,-2.5444138E0,1.1698724E0,-2.5748298E0,4.1176367E0,5.9438176E0,1.0487742E1,1.431811E1,1.941021E1,2.5232136E1,8.901895E0,9.910685E0,1.2949441E1,3.2993755E1,4.200913E1,1.3831394E1,1.7156553E1,5.5710327E1,2.218055E1,2.0709503E1,2.7255064E1,-6.330565E0,-5.7497454E0,-5.2154427E0,-4.6909165E0,-5.4089184E0,-4.6470933E0,-4.2119575E0,-3.207411E0,-3.6325212E0,-2.892201E0,-2.5343654E0,-1.2416284E0,-4.519903E0,-3.0417857E0,-1.8026514E0,-8.710888E-1,-1.9891751E0,-6.1338687E-1,-1.6329482E-1,9.5184046E-1,-1.4317904E-1,-1.4364398E0,9.676007E-1,2.3664885E0,7.454815E-1,2.0749986E0,2.7835104E0,3.7326272E0,3.272915E0,4.5665836E0,3.9817293E0,6.099119E0,3.0401013E0,7.6347556E0,3.801169E0,1.0176775E1,1.1758966E1,1.4431727E1,1.396922E1,1.7293587E1],"categories":[],"categories_nodes":[],"categories_segments":[],"categories_sizes":[],"default_left":[0,0,0,0,0,0,0,0,0,0,0,0,0,0,0,0,0,0,0,0,0,0,0,0,0,0,0,0,0,0,0,0,0,0,0,0,0,0,0,0,0,0,0,0,0,0,0,0,0,0,0,0,0,0,0,0,0,0,0,0,0,0,0,0,0,0,0,0,0,0,0,0,0,0,0,0,0,0,0,0,0,0,0,0,0,0,0,0,0,0,0,0,0,0,0,0,0,0,0,0,0],"id":5,"left_children":[1,3,5,7,9,11,13,15,17,19,21,23,25,27,29,31,33,35,37,39,41,43,45,47,-1,49,51,53,55,57,59,-1,61,-1,63,65,67,69,71,73,75,77,79,81,83,85,87,89,91,93,-1,-1,-1,95,97,-1,-1,99,-1,-1,-1,-1,-1,-1,-1,-1,-1,-1,-1,-1,-1,-1,-1,-1,-1,-1,-1,-1,-1,-1,-1,-1,-1,-1,-1,-1,-1,-1,-1,-1,-1,-1,-1,-1,-1,-1,-1,-1,-1,-1,-1],"loss_changes":[3.6398798E6,2.4818744E5,3.9317875E5,3.4998375E4,1.7447736E4,2.111325E4,7.412925E4,4.0654375E3,4.8803438E3,4.1535913E3,2.9266074E3,4.0430156E3,7.0714844E3,1.12305E4,2.1953625E4,5.07375E2,8.879375E2,8.83125E2,1.1304531E3,1.172541E3,1.7593033E3,1.149259E3,5.264541E2,2.0371406E3,0E0,3.0526562E2,9.188281E1,1.9619062E3,3.1068125E3,1.8090125E4,3.4985625E3,0E0,3.5734375E2,0E0,3.5153125E2,5.5296875E1,4.3651562E2,6.285547E2,8.8831055E1,2.5632324E1,2.4055322E2,8.380532E2,6.334723E2,1.3234874E2,7.9551074E2,1.2750537E2,1.06731445E2,3.6996094E2,7.7503125E2,2.828203E2,0E0,0E0,0E0,6.0840234E2,1.93825E3,0E0,0E0,3.17375E3,0E0,0E0,0E0,0E0,0E0,0E0,0E0,0E0,0E0,0E0,0E0,0E0,0E0,0E0,0E0,0E0,0E0,0E0,0E0,0E0,0E0,0E0,0E0,0E0,0E0,0E0,0E0,0E0,0E0,0E0,0E0,0E0,0E0,0E0,0E0,0E0,0E0,0E0,0E0,0E0,0E0,0E0,0E0],"parents":[2147483647,0,0,1,1,2,2,3,3,4,4,5,5,6,6,7,7,8,8,9,9,10,10,11,11,12,12,13,13,14,14,15,15,16,16,17,17,18,18,19,19,20,20,21,21,22,22,23,23,25,25,26,26,27,27,28,28,29,29,30,30,32,32,34,34,35,35,36,36,37,37,38,38,39,39,40,40,41,41,42,42,43,43,44,44,45,45,46,46,47,47,48,48,49,49,53,53,54,54,57,57],"right_children":[2,4,6,8,10,12,14,16,18,20,22,24,26,28,30,32,34,36,38,40,42,44,46,48,-1,50,52,54,56,58,60,-1,62,-1,64,66,68,70,72,74,76,78,80,82,84,86,88,90,92,94,-1,-1,-1,96,98,-1,-1,100,-1,-1,-1,-1,-1,-1,-1,-1,-1,-1,-1,-1,-1,-1,-1,-1,-1,-1,-1,-1,-1,-1,-1,-1,-1,-1,-1,-1,-1,-1,-1,-1,-1,-1,-1,-1,-1,-1,-1,-1,-1,-1,-1],"split_conditions":[5.0076526E-1,-3.5228005E-1,1.4955773E0,-6.2925833E-1,6.0165968E-2,9.6922725E-1,2.121504E0,-7.476357E-1,-5.15558E-1,-1.7794967E-1,2.586054E-1,1.0822393E0,9.1395885E-1,2.6350677E-1,7.8779525E-1,-8.255721E-1,-7.436397E-1,-4.985531E-1,9.552118E-1,-6.7895395E-1,6.8497187E-1,-1.3041071E0,-5.359615E-1,6.5639204E-1,7.994348E0,1.1946753E0,1.1946753E0,-1.0456291E0,1.8021266E0,2.763161E0,2.471257E0,-6.593876E0,-7.90585E-1,-5.697177E0,-6.900997E-1,-1.8115287E0,1.4996555E0,-4.0067884E-1,1.9547478E0,-1.8115287E0,1.0822393E0,-1.3805412E0,-6.310785E-2,-1.5710387E0,8.775667E-1,2.9319668E-1,1.2036232E0,-6.897061E-1,-1.0456291E0,-1.6479181E0,8.901895E0,9.910685E0,1.2949441E1,1.5607635E0,1.8433632E0,1.3831394E1,1.7156553E1,-1.1895524E0,2.218055E1,2.0709503E1,2.7255064E1,-6.330565E0,-5.7497454E0,-5.2154427E0,-4.6909165E0,-5.4089184E0,-4.6470933E0,-4.2119575E0,-3.207411E0,-3.6325212E0,-2.892201E0,-2.5343654E0,-1.2416284E0,-4.519903E0,-3.0417857E0,-1.8026514E0,-8.710888E-1,-1.9891751E0,-6.1338687E-1,-1.6329482E-1,9.5184046E-1,-1.4317904E-1,-1.4364398E0,9.676007E-1,2.3664885E0,7.454815E-1,2.0749986E0,2.7835104E0,3.7326272E0,3.272915E0,4.5665836E0,3.9817293E0,6.099119E0,3.0401013E0,7.6347556E0,3.801169E0,1.0176775E1,1.1758966E1,1.4431727E1,1.396922E1,1.7293587E1],"split_indices":[0,0,0,0,0,0,0,0,0,0,0,1,1,1,1,0,1,1,1,1,1,1,1,0,0,0,0,1,0,0,0,0,1,0,0,1,1,0,1,1,1,1,0,1,1,0,1,1,1,1,0,0,0,0,0,0,0,1,0,0,0,0,0,0,0,0,0,0,0,0,0,0,0,0,0,0,0,0,0,0,0,0,0,0,0,0,0,0,0,0,0,0,0,0,0,0,0,0,0,0,0],"split_type":[0,0,0,0,0,0,0,0,0,0,0,0,0,0,0,0,0,0,0,0,0,0,0,0,0,0,0,0,0,0,0,0,0,0,0,0,0,0,0,0,0,0,0,0,0,0,0,0,0,0,0,0,0,0,0,0,0,0,0,0,0,0,0,0,0,0,0,0,0,0,0,0,0,0,0,0,0,0,0,0,0,0,0,0,0,0,0,0,0,0,0,0,0,0,0,0,0,0,0,0,0],"sum_hessian":[6.978E3,5.313E3,1.665E3,4.114E3,1.199E3,7.1E2,9.55E2,2.455E3,1.659E3,7.93E2,4.06E2,4.1E2,3E2,4.63E2,4.92E2,1.309E3,1.146E3,8.17E2,8.42E2,1.94E2,5.99E2,2.71E2,1.35E2,3.57E2,5.3E1,2.38E2,6.2E1,2.76E2,1.87E2,4.1E2,8.2E1,1.91E2,1.118E3,3E2,8.46E2,2.85E2,5.32E2,7.1E2,1.32E2,4.7E1,1.47E2,4.16E2,1.83E2,2.8E1,2.43E2,4.2E1,9.3E1,1.73E2,1.84E2,1.64E2,7.4E1,2.7E1,3.5E1,5.4E1,2.22E2,1.05E2,8.2E1,3.3E2,8E1,4.9E1,3.3E1,2.56E2,8.62E2,4.95E2,3.51E2,6.1E1,2.24E2,4.7E2,6.2E1,5.49E2,1.61E2,1.24E2,8E0,6E0,4.1E1,1.11E2,3.6E1,4.4E1,3.72E2,9.9E1,8.4E1,1.5E1,1.3E1,1.98E2,4.5E1,1E1,3.2E1,6.1E1,3.2E1,3.9E1,1.34E2,2.6E1,1.58E2,3E0,1.61E2,3E0,5.1E1,1.57E2,6.5E1,6.2E1,2.68E2],"tree_param":{"num_deleted":"0","num_feature":"2","num_nodes":"101","size_leaf_vector":"1"}},{"base_weights":[1.2159355E-1,-8.39113E0,3.0444618E1,-1.1300416E1,1.6310477E0,2.1319204E1,4.1700146E1,-1.2807803E1,-8.120067E0,-4.2598242E-1,7.9607353E0,1.6073412E1,2.766271E1,3.715351E1,4.832712E1,-1.3731115E1,-1.1466978E1,-8.992498E0,-6.6739473E0,-2.0517757E0,1.6653724E0,5.3251567E0,9.429239E0,1.4273468E1,2.0426458E1,2.5622726E1,3.3084614E1,3.4743282E1,1.4341277E1,4.540812E1,1.8906048E1,-1.4709645E1,-1.322573E1,-1.2019398E1,-1.0404338E1,-4.2449265E0,-8.778971E0,-2.8070536E0,-6.054163E0,-2.8321598E0,7.039838E-1,-1.548132E0,2.1627512E0,2.8253047E0,6.1852856E0,7.1956515E0,1.1454776E1,1.2433879E1,1.6690258E1,1.8353746E1,7.358907E0,2.0867563E1,2.7094397E1,2.199555E1,1.01791E1,1.9365316E1,3.5700924E1,4.3346035E1,1.7525742E1,-4.6000366E0,-4.1989136E0,-4.111023E0,-3.6903417E0,-3.8340206E0,-3.389652E0,-3.2379453E0,-2.806205E0,-2.762062E0,-2.0950797E0,-1.9526014E0,-1.3516581E0,-1.9656407E0,-7.1926177E-1,-2.3889935E-2,9.172742E-1,2.9788896E-1,-5.466302E-1,5.3811026E-1,1.5235878E0,2.832753E-1,1.262464E0,1.7351886E0,2.6259634E0,1.476448E0,2.2499642E0,2.5720367E0,3.8296604E0,2.031705E0,3.831544E0,2.3560789E0,5.047635E0,4.9379897E0,6.3065195E0,6.309324E0,1.4132218E0,7.216972E0,8.5745535E0,1.9227678E0,6.9045687E0,2.3314774E0,6.236062E0,9.934563E0,1.1497258E1,7.560704E0,1.3102085E1],"categories":[],"categories_nodes":[],"categories_segments":[],"categories_sizes":[],"default_left":[0,0,0,0,0,0,0,0,0,0,0,0,0,0,0,0,0,0,0,0,0,0,0,0,0,0,0,0,0,0,0,0,0,0,0,0,0,0,0,0,0,0,0,0,0,0,0,0,0,0,0,0,0,0,0,0,0,0,0,0,0,0,0,0,0,0,0,0,0,0,0,0,0,0,0,0,0,0,0,0,0,0,0,0,0,0,0,0,0,0,0,0,0,0,0,0,0,0,0,0,0,0,0,0,0],"id":6,"left_children":[1,3,5,7,9,11,13,15,17,19,21,23,25,27,29,31,33,35,37,39,41,43,45,47,49,51,53,55,-1,57,-1,59,61,63,65,-1,67,-1,69,71,73,75,77,79,81,83,85,87,89,91,-1,93,95,97,-1,99,101,103,-1,-1,-1,-1,-1,-1,-1,-1,-1,-1,-1,-1,-1,-1,-1,-1,-1,-1,-1,-1,-1,-1,-1,-1,-1,-1,-1,-1,-1,-1,-1,-1,-1,-1,-1,-1,-1,-1,-1,-1,-1,-1,-1,-1,-1,-1,-1],"loss_changes":[1.8017556E6,1.5892612E5,1.5625925E5,2.0145938E4,1.5979371E4,2.774075E4,1.881375E4,3.3881875E3,1.6570781E3,3.1553193E3,1.1147656E3,3.359664E3,3.3774062E3,8.864125E3,8.9328125E3,6.4171875E2,5.641094E2,8.0740625E2,8.013672E2,1.1245815E3,6.522699E2,2.1904614E2,7.8622266E2,1.2729609E3,6.894336E2,1.4080312E3,2.00875E2,4.2862188E3,0E0,3.7190938E3,0E0,3.7664062E1,3.2829688E2,2.754453E2,6.606641E1,0E0,5.618164E2,0E0,2.67708E2,6.4231934E2,2.1418439E2,4.0099197E1,3.6967932E2,7.406616E1,3.28479E1,2.8124512E1,2.644502E2,2.8275586E2,3.630078E1,1.2387109E2,0E0,8.850195E1,2.70375E2,1.142041E1,0E0,2.0103906E2,8.8109375E2,1.1775E2,0E0,0E0,0E0,0E0,0E0,0E0,0E0,0E0,0E0,0E0,0E0,0E0,0E0,0E0,0E0,0E0,0E0,0E0,0E0,0E0,0E0,0E0,0E0,0E0,0E0,0E0,0E0,0E0,0E0,0E0,0E0,0E0,0E0,0E0,0E0,0E0,0E0,0E0,0E0,0E0,0E0,0E0,0E0,0E0,0E0,0E0,0E0],"parents":[2147483647,0,0,1,1,2,2,3,3,4,4,5,5,6,6,7,7,8,8,9,9,10,10,11,11,12,12,13,13,14,14,15,15,16,16,17,17,18,18,19,19,20,20,21,21,22,22,23,23,24,24,25,25,26,26,27,27,29,29,31,31,32,32,33,33,34,34,36,36,38,38,39,39,40,40,41,41,42,42,43,43,44,44,45,45,46,46,47,47,48,48,49,49,51,51,52,52,53,53,55,55,56,56,57,57],"right_children":[2,4,6,8,10,12,14,16,18,20,22,24,26,28,30,32,34,36,38,40,42,44,46,48,50,52,54,56,-1,58,-1,60,62,64,66,-1,68,-1,70,72,74,76,78,80,82,84,86,88,90,92,-1,94,96,98,-1,100,102,104,-1,-1,-1,-1,-1,-1,-1,-1,-1,-1,-1,-1,-1,-1,-1,-1,-1,-1,-1,-1,-1,-1,-1,-1,-1,-1,-1,-1,-1,-1,-1,-1,-1,-1,-1,-1,-1,-1,-1,-1,-1,-1,-1,-1,-1,-1,-1],"split_conditions":[6.273231E-1,-2.3480977E-1,1.8021266E0,-5.83002E-1,2.1245313E-1,1.1946753E0,2.4330666E0,-7.2218966E-1,-4.4333896E-1,1.4308332E-3,3.7230414E-1,4.8171136E-1,8.0093515E-1,9.2834127E-1,7.3665816E-1,-4.194976E-1,4.6206188E-1,-2.1370394E0,-9.717372E-1,9.6827507E-1,-1.1732461E0,-5.915146E-1,1.2457836E-1,9.6922725E-1,9.954125E-1,1.4955773E0,1.2613289E0,-1.5710387E0,1.4341277E1,2.8540103E0,1.8906048E1,-7.7171195E-1,-7.609115E-1,-6.4241284E-1,1.3582567E0,-4.2449265E0,8.866592E-1,-2.8070536E0,9.552118E-1,-1.3430239E0,-5.6263514E-2,-1.8726953E0,1.1266837E0,2.9319668E-1,1.6025289E0,-1.445749E0,5.0076526E-1,-1.3430239E0,-1.6479181E0,1.1712208E0,7.358907E0,6.992018E-1,-5.656817E-1,8.426004E-1,1.01791E1,-2.2918928E0,-1.4023653E-1,-1.707082E0,1.7525742E1,-4.6000366E0,-4.1989136E0,-4.111023E0,-3.6903417E0,-3.8340206E0,-3.389652E0,-3.2379453E0,-2.806205E0,-2.762062E0,-2.0950797E0,-1.9526014E0,-1.3516581E0,-1.9656407E0,-7.1926177E-1,-2.3889935E-2,9.172742E-1,2.9788896E-1,-5.466302E-1,5.3811026E-1,1.5235878E0,2.832753E-1,1.262464E0,1.7351886E0,2.6259634E0,1.476448E0,2.2499642E0,2.5720367E0,3.8296604E0,2.031705E0,3.831544E0,2.3560789E0,5.047635E0,4.9379897E0,6.3065195E0,6.309324E0,1.4132218E0,7.216972E0,8.5745535E0,1.9227678E0,6.9045687E0,2.3314774E0,6.236062E0,9.934563E0,1.1497258E1,7.560704E0,1.3102085E1],"split_indices":[0,0,0,0,0,0,0,0,0,0,0,1,1,1,1,1,1,1,1,1,1,1,1,0,0,0,0,1,0,0,0,0,0,0,1,0,1,0,1,1,0,1,1,0,1,1,0,1,1,1,0,1,1,1,0,1,1,1,0,0,0,0,0,0,0,0,0,0,0,0,0,0,0,0,0,0,0,0,0,0,0,0,0,0,0,0,0,0,0,0,0,0,0,0,0,0,0,0,0,0,0,0,0,0,0],"split_type":[0,0,0,0,0,0,0,0,0,0,0,0,0,0,0,0,0,0,0,0,0,0,0,0,0,0,0,0,0,0,0,0,0,0,0,0,0,0,0,0,0,0,0,0,0,0,0,0,0,0,0,0,0,0,0,0,0,0,0,0,0,0,0,0,0,0,0,0,0,0,0,0,0,0,0,0,0,0,0,0,0,0,0,0,0,0,0,0,0,0,0,0,0,0,0,0,0,0,0,0,0,0,0,0,0],"sum_hessian":[6.978E3,5.449E3,1.529E3,4.223E3,1.226E3,8.46E2,6.83E2,2.863E3,1.36E3,9.26E2,3E2,4.65E2,3.81E2,4.09E2,2.74E2,1.69E3,1.173E3,8.45E2,5.15E2,5.21E2,4.05E2,1.09E2,1.91E2,3.32E2,1.33E2,2.81E2,1E2,3.37E2,7.2E1,2.32E2,4.2E1,5.66E2,1.124E3,7.65E2,4.08E2,3.1E1,8.14E2,9.4E1,4.21E2,4.06E2,1.15E2,5.4E1,3.51E2,2.9E1,8E1,9.3E1,9.8E1,1.92E2,1.4E2,9.2E1,4.1E1,7E1,2.11E2,9E0,9.1E1,2.1E1,3.16E2,2.04E2,2.8E1,2.91E2,2.75E2,7.32E2,3.92E2,3.64E2,4.01E2,2.91E2,1.17E2,6.54E2,1.6E2,3.23E2,9.8E1,4.1E1,3.65E2,8.7E1,2.8E1,5E0,4.9E1,3.13E2,3.8E1,1.3E1,1.6E1,7.2E1,8E0,1.3E1,8E1,3.3E1,6.5E1,1.2E1,1.8E2,3E0,1.37E2,5.8E1,3.4E1,6.9E1,1E0,7.5E1,1.36E2,1E0,8E0,3E0,1.8E1,1.66E2,1.5E2,5E0,1.99E2],"tree_param":{"num_deleted":"0","num_feature":"2","num_nodes":"105","size_leaf_vector":"1"}},{"base_weights":[1.0614931E-1,-5.8068395E0,2.1689867E1,-7.8909802E0,1.4294899E0,1.5023034E1,2.907633E1,-8.899716E0,-5.40373E0,-4.680715E-1,5.2072415E0,1.155492E1,1.9249916E1,2.6748611E1,3.6557404E1,-9.511132E0,-7.7606196E0,-2.423699E0,-5.104554E0,-1.8545281E0,3.2737494E-1,3.3265007E0,6.800606E0,1.0230648E1,1.4671869E1,1.8322392E1,7.8288302E0,2.4653278E1,3.3198303E1,3.4891922E1,1.705607E1,-9.778516E0,-8.1426735E0,-2.7035143E0,-7.4342685E0,-5.580809E0,-3.7776067E0,-2.3146126E0,5.306901E-1,-8.821785E-1,1.1047299E0,2.6166675E0,5.6922865E0,6.171031E0,3.585636E0,9.259403E0,1.2775383E1,1.0550836E1,4.747725E0,1.5283913E1,1.9428104E1,1.6515608E1,2.5475063E1,3.0011532E1,1.1328192E1,2.8432878E1,3.7499336E1,-3.2574093E0,-2.8542893E0,-2.8722897E0,-2.3622727E0,-2.282621E0,-1.7270595E0,-1.707781E0,-7.720435E-1,-1.4452876E0,-9.7862625E-1,-9.5264244E-1,-4.7787946E-1,-2.323311E-2,4.249069E-1,-6.7232996E-1,-3.7191167E-2,2.5552133E-1,8.5062224E-1,5.2624952E-2,9.3342924E-1,1.793466E0,-3.3866886E-2,1.307241E0,2.001802E0,2.41991E0,3.0337384E0,4.049702E0,2.6704571E0,2.5713873E0,3.891252E0,3.0120285E0,4.863352E0,4.935075E0,6.1323657E0,5.152235E0,-1.4737107E0,6.741688E0,8.210587E0,6.860405E0,9.419043E0,3.9088588E0,9.4718685E0,9.474701E0,1.2278335E1],"categories":[],"categories_nodes":[],"categories_segments":[],"categories_sizes":[],"default_left":[0,0,0,0,0,0,0,0,0,0,0,0,0,0,0,0,0,0,0,0,0,0,0,0,0,0,0,0,0,0,0,0,0,0,0,0,0,0,0,0,0,0,0,0,0,0,0,0,0,0,0,0,0,0,0,0,0,0,0,0,0,0,0,0,0,0,0,0,0,0,0,0,0,0,0,0,0,0,0,0,0,0,0,0,0,0,0,0,0,0,0,0,0,0,0,0,0,0,0,0,0],"id":7,"left_children":[1,3,5,7,9,11,13,15,17,19,21,23,25,27,29,31,33,-1,35,37,39,41,43,45,47,49,-1,51,53,55,-1,57,59,-1,61,63,65,67,69,71,73,75,77,79,-1,81,83,85,-1,87,89,91,93,95,-1,97,99,-1,-1,-1,-1,-1,-1,-1,-1,-1,-1,-1,-1,-1,-1,-1,-1,-1,-1,-1,-1,-1,-1,-1,-1,-1,-1,-1,-1,-1,-1,-1,-1,-1,-1,-1,-1,-1,-1,-1,-1,-1,-1,-1,-1],"loss_changes":[8.908158E5,8.264295E4,7.347894E4,1.0625125E4,8.791037E3,1.13730625E4,1.1403375E4,2.0329688E3,9.4322266E2,9.016371E2,1.2060264E3,1.6536953E3,1.7761094E3,6.5603125E3,3.6275625E3,6.390156E2,3.6661328E2,0E0,6.797676E2,3.2825427E2,4.8990576E2,3.041748E2,6.430039E2,6.478926E2,4.416875E2,7.6471875E2,0E0,2.3612188E3,7.713594E2,1.5610469E3,0E0,3.6389062E2,5.0273438E1,0E0,2.04375E2,2.5901953E2,1.4298486E2,1.5025867E2,2.6501257E1,2.0991255E2,1.3638272E2,1.7821472E2,7.205005E1,1.5196582E2,0E0,1.5047266E2,1.1250391E2,3.73291E1,0E0,2.6999023E2,3.5160156E2,6.628965E2,1.522875E3,9.346875E1,0E0,1.9585938E3,8.982969E2,0E0,0E0,0E0,0E0,0E0,0E0,0E0,0E0,0E0,0E0,0E0,0E0,0E0,0E0,0E0,0E0,0E0,0E0,0E0,0E0,0E0,0E0,0E0,0E0,0E0,0E0,0E0,0E0,0E0,0E0,0E0,0E0,0E0,0E0,0E0,0E0,0E0,0E0,0E0,0E0,0E0,0E0,0E0,0E0],"parents":[2147483647,0,0,1,1,2,2,3,3,4,4,5,5,6,6,7,7,8,8,9,9,10,10,11,11,12,12,13,13,14,14,15,15,16,16,18,18,19,19,20,20,21,21,22,22,23,23,24,24,25,25,27,27,28,28,29,29,31,31,32,32,34,34,35,35,36,36,37,37,38,38,39,39,40,40,41,41,42,42,43,43,45,45,46,46,47,47,49,49,50,50,51,51,52,52,53,53,55,55,56,56],"right_children":[2,4,6,8,10,12,14,16,18,20,22,24,26,28,30,32,34,-1,36,38,40,42,44,46,48,50,-1,52,54,56,-1,58,60,-1,62,64,66,68,70,72,74,76,78,80,-1,82,84,86,-1,88,90,92,94,96,-1,98,100,-1,-1,-1,-1,-1,-1,-1,-1,-1,-1,-1,-1,-1,-1,-1,-1,-1,-1,-1,-1,-1,-1,-1,-1,-1,-1,-1,-1,-1,-1,-1,-1,-1,-1,-1,-1,-1,-1,-1,-1,-1,-1,-1,-1],"split_conditions":[6.421577E-1,-2.0089021E-1,1.7690184E0,-5.5959064E-1,1.1561533E-1,1.1946753E0,2.5668044E0,-6.900997E-1,-1.3041071E0,-7.740207E-2,3.7230414E-1,5.023703E-1,1.4126538E0,6.7198354E-1,1.1712208E0,1.0822393E0,-1.0779856E0,-2.423699E0,-4.0067884E-1,1.142354E0,-2.4905485E-1,8.775667E-1,1.4126538E0,1.0351257E0,8.009511E-1,1.4955773E0,7.8288302E0,-1.4305352E0,1.2036232E0,2.6858344E0,1.705607E1,-8.0909103E-1,-8.052135E-1,-2.7035143E0,1.4996555E0,1.6025289E0,-3.18176E-1,-1.3352802E-1,1.472729E0,-1.869494E-2,1.2488029E0,-1.1732461E0,2.090587E0,5.0076526E-1,3.585636E0,8.503832E-1,1.1319568E0,1.0822393E0,4.747725E0,-8.0364114E-1,-5.656817E-1,2.5195174E0,2.121504E0,1.9491658E0,1.1328192E1,-1.0960307E0,-4.194976E-1,-3.2574093E0,-2.8542893E0,-2.8722897E0,-2.3622727E0,-2.282621E0,-1.7270595E0,-1.707781E0,-7.720435E-1,-1.4452876E0,-9.7862625E-1,-9.5264244E-1,-4.7787946E-1,-2.323311E-2,4.249069E-1,-6.7232996E-1,-3.7191167E-2,2.5552133E-1,8.5062224E-1,5.2624952E-2,9.3342924E-1,1.793466E0,-3.3866886E-2,1.307241E0,2.001802E0,2.41991E0,3.0337384E0,4.049702E0,2.6704571E0,2.5713873E0,3.891252E0,3.0120285E0,4.863352E0,4.935075E0,6.1323657E0,5.152235E0,-1.4737107E0,6.741688E0,8.210587E0,6.860405E0,9.419043E0,3.9088588E0,9.4718685E0,9.474701E0,1.2278335E1],"split_indices":[0,0,0,0,0,0,0,0,1,0,0,1,1,1,1,1,1,0,0,1,1,1,1,0,0,0,0,1,1,0,0,0,0,0,1,1,1,0,1,0,1,1,1,0,0,0,0,1,0,1,1,0,0,0,0,1,1,0,0,0,0,0,0,0,0,0,0,0,0,0,0,0,0,0,0,0,0,0,0,0,0,0,0,0,0,0,0,0,0,0,0,0,0,0,0,0,0,0,0,0,0],"split_type":[0,0,0,0,0,0,0,0,0,0,0,0,0,0,0,0,0,0,0,0,0,0,0,0,0,0,0,0,0,0,0,0,0,0,0,0,0,0,0,0,0,0,0,0,0,0,0,0,0,0,0,0,0,0,0,0,0,0,0,0,0,0,0,0,0,0,0,0,0,0,0,0,0,0,0,0,0,0,0,0,0,0,0,0,0,0,0,0,0,0,0,0,0,0,0,0,0,0,0,0,0],"sum_hessian":[6.978E3,5.478E3,1.5E3,4.253E3,1.225E3,7.9E2,7.1E2,3.024E3,1.229E3,8.16E2,4.09E2,4.36E2,3.54E2,5.45E2,1.65E2,1.963E3,1.061E3,1.21E2,1.108E3,2.97E2,5.19E2,1.89E2,2.2E2,3.09E2,1.27E2,3.15E2,3.9E1,4.15E2,1.3E2,1.55E2,1E1,1.637E3,3.26E2,2.14E2,8.47E2,8.13E2,2.95E2,2.49E2,4.8E1,2.03E2,3.16E2,1.47E2,4.2E1,1.98E2,2.2E1,2.27E2,8.2E1,3E1,9.7E1,8.8E1,2.27E2,4E1,3.75E2,8.1E1,4.9E1,4.8E1,1.07E2,3.14E2,1.323E3,4.6E1,2.8E2,7.64E2,8.3E1,7.83E2,3E1,9.5E1,2E2,1.12E2,1.37E2,2.9E1,1.9E1,7.2E1,1.31E2,2.77E2,3.9E1,2.5E1,1.22E2,4E1,2E0,4.5E1,1.53E2,9.9E1,1.28E2,6.7E1,1.5E1,1.9E1,1.1E1,1.5E1,7.3E1,6.2E1,1.65E2,3.9E1,1E0,1.5E2,2.25E2,1.6E1,6.5E1,9E0,3.9E1,4.3E1,6.4E1],"tree_param":{"num_deleted":"0","num_feature":"2","num_nodes":"101","size_leaf_vector":"1"}},{"base_weights":[9.324778E-2,-4.119859E0,1.5100658E1,-5.6367116E0,5.5526775E-1,9.822927E0,1.99933E1,-6.561623E0,-4.5018873E0,-7.556104E-1,3.2814608E0,7.4998045E0,1.2308157E1,1.766243E1,2.4319584E1,-6.8473864E0,-5.775089E0,-5.0126886E0,-3.561534E0,-2.104747E0,-1.6147453E-1,1.7678486E0,4.4310184E0,4.6418643E0,8.100115E0,1.0882118E1,1.4909449E1,1.667421E1,2.569625E1,2.2626877E1,9.807615E0,-7.483653E0,-6.547902E0,-6.225308E0,-5.074247E0,-5.5174475E0,-4.504634E0,-4.3016396E0,-2.9904578E0,-4.042737E0,-1.4764134E0,-1.3969754E0,2.8912333E-1,1.0708959E0,3.737287E0,3.4909415E0,5.7686214E0,3.1930258E0,6.1256576E0,7.7859426E0,3.8606591E0,7.4738317E0,1.1426882E1,1.3548749E1,4.9875283E0,1.302371E1,1.7651344E1,6.873741E0,9.878253E0,2.1367424E1,9.211872E0,-2.5459738E0,-2.1825533E0,-2.182494E0,-1.8916615E0,-1.963576E0,-1.5989729E0,-1.5860382E0,-1.1464368E0,-2.283501E0,-1.6202432E0,-1.4531457E0,-1.1348212E0,-1.8109529E0,-1.2097375E0,-9.6307015E-1,-7.242289E-1,-2.318985E0,-1.066002E0,-5.368543E-1,7.715225E-2,-5.121772E-1,4.3784556E-1,-4.0678978E-2,2.914083E-1,-4.0983486E-1,4.4549945E-1,9.804181E-1,1.9666208E0,1.0625163E0,-5.884232E-1,1.2192752E0,2.1791186E0,-4.4497377E-1,1.2437872E0,1.9164997E0,-3.4199068E-1,1.9363614E0,2.5388775E0,4.209656E-1,2.339768E0,3.5324242E0,1.79671E0,3.3564684E0,4.6820664E0,1.3555207E0,4.080857E0,4.670641E0,5.7571917E0,5.7727075E0,6.934216E0],"categories":[],"categories_nodes":[],"categories_segments":[],"categories_sizes":[],"default_left":[0,0,0,0,0,0,0,0,0,0,0,0,0,0,0,0,0,0,0,0,0,0,0,0,0,0,0,0,0,0,0,0,0,0,0,0,0,0,0,0,0,0,0,0,0,0,0,0,0,0,0,0,0,0,0,0,0,0,0,0,0,0,0,0,0,0,0,0,0,0,0,0,0,0,0,0,0,0,0,0,0,0,0,0,0,0,0,0,0,0,0,0,0,0,0,0,0,0,0,0,0,0,0,0,0,0,0,0,0,0,0],"id":8,"left_children":[1,3,5,7,9,11,13,15,17,19,21,23,25,27,29,31,33,35,37,39,41,43,45,47,49,51,53,55,57,59,-1,61,63,65,67,69,71,73,75,77,79,81,83,85,87,89,91,93,95,97,-1,99,101,103,-1,105,107,-1,-1,109,-1,-1,-1,-1,-1,-1,-1,-1,-1,-1,-1,-1,-1,-1,-1,-1,-1,-1,-1,-1,-1,-1,-1,-1,-1,-1,-1,-1,-1,-1,-1,-1,-1,-1,-1,-1,-1,-1,-1,-1,-1,-1,-1,-1,-1,-1,-1,-1,-1,-1,-1],"loss_changes":[4.413292E5,3.8651695E4,3.9311375E4,4.2896016E3,4.776952E3,4.1685234E3,7.5670938E3,4.6953906E2,8.712422E2,7.2347833E2,7.473203E2,6.21209E2,1.1546445E3,3.6919688E3,3.1576094E3,2.6654688E2,1.6088672E2,2.8211133E2,2.6397656E2,3.301178E2,3.500203E2,2.5542017E2,2.8919482E2,1.2877515E2,3.7323828E2,3.4720898E2,6.189258E1,1.4287891E3,3.5271094E2,1.7046172E3,0E0,4.7609375E1,1.5395703E2,7.025195E1,4.4768066E1,1.0447266E2,1.2908105E2,1.0781787E2,3.9498047E1,9.343506E1,1.1444568E2,1.5139151E2,1.3371103E2,1.4432191E2,4.337097E1,4.764612E1,2.252998E2,1.7102765E2,7.026282E1,2.1487695E2,0E0,5.8193115E1,3.0591797E2,1.8489941E2,0E0,4.4096875E2,8.680703E2,0E0,0E0,3.1242188E2,0E0,0E0,0E0,0E0,0E0,0E0,0E0,0E0,0E0,0E0,0E0,0E0,0E0,0E0,0E0,0E0,0E0,0E0,0E0,0E0,0E0,0E0,0E0,0E0,0E0,0E0,0E0,0E0,0E0,0E0,0E0,0E0,0E0,0E0,0E0,0E0,0E0,0E0,0E0,0E0,0E0,0E0,0E0,0E0,0E0,0E0,0E0,0E0,0E0,0E0,0E0],"parents":[2147483647,0,0,1,1,2,2,3,3,4,4,5,5,6,6,7,7,8,8,9,9,10,10,11,11,12,12,13,13,14,14,15,15,16,16,17,17,18,18,19,19,20,20,21,21,22,22,23,23,24,24,25,25,26,26,27,27,28,28,29,29,31,31,32,32,33,33,34,34,35,35,36,36,37,37,38,38,39,39,40,40,41,41,42,42,43,43,44,44,45,45,46,46,47,47,48,48,49,49,51,51,52,52,53,53,55,55,56,56,59,59],"right_children":[2,4,6,8,10,12,14,16,18,20,22,24,26,28,30,32,34,36,38,40,42,44,46,48,50,52,54,56,58,60,-1,62,64,66,68,70,72,74,76,78,80,82,84,86,88,90,92,94,96,98,-1,100,102,104,-1,106,108,-1,-1,110,-1,-1,-1,-1,-1,-1,-1,-1,-1,-1,-1,-1,-1,-1,-1,-1,-1,-1,-1,-1,-1,-1,-1,-1,-1,-1,-1,-1,-1,-1,-1,-1,-1,-1,-1,-1,-1,-1,-1,-1,-1,-1,-1,-1,-1,-1,-1,-1,-1,-1,-1],"split_conditions":[6.273231E-1,-3.5228005E-1,1.6883407E0,-6.4241284E-1,9.095469E-2,1.0489162E0,2.4330666E0,7.762947E-1,-4.8340946E-1,-1.3352802E-1,2.9319668E-1,-7.720615E-1,4.3388626E-1,1.1712208E0,7.116066E-1,-7.7646685E-1,-7.438884E-1,-5.8952324E-2,-1.4023653E-1,-6.7895395E-1,-6.897061E-1,7.62706E-1,4.8171136E-1,8.503832E-1,1.4333647E0,-1.062161E0,1.4955773E0,-8.875848E-1,1.6025289E0,2.8540103E0,9.807615E0,-8.325358E-1,-1.0456291E0,1.472729E0,1.7839329E0,-2.2918928E0,-5.519457E-1,-1.445749E0,8.9855903E-1,-1.8115287E0,1.4126538E0,7.2040476E-2,6.576256E-1,-1.1732461E0,1.643974E0,4.727654E-1,5.0076526E-1,-1.3430239E0,-8.1803864E-1,8.009511E-1,3.8606591E0,-1.6479181E0,1.6555388E0,1.1897949E0,4.9875283E0,-1.8115287E0,1.9812146E0,6.873741E0,9.878253E0,-3.982168E-1,9.211872E0,-2.5459738E0,-2.1825533E0,-2.182494E0,-1.8916615E0,-1.963576E0,-1.5989729E0,-1.5860382E0,-1.1464368E0,-2.283501E0,-1.6202432E0,-1.4531457E0,-1.1348212E0,-1.8109529E0,-1.2097375E0,-9.6307015E-1,-7.242289E-1,-2.318985E0,-1.066002E0,-5.368543E-1,7.715225E-2,-5.121772E-1,4.3784556E-1,-4.0678978E-2,2.914083E-1,-4.0983486E-1,4.4549945E-1,9.804181E-1,1.9666208E0,1.0625163E0,-5.884232E-1,1.2192752E0,2.1791186E0,-4.4497377E-1,1.2437872E0,1.9164997E0,-3.4199068E-1,1.9363614E0,2.5388775E0,4.209656E-1,2.339768E0,3.5324242E0,1.79671E0,3.3564684E0,4.6820664E0,1.3555207E0,4.080857E0,4.670641E0,5.7571917E0,5.7727075E0,6.934216E0],"split_indices":[0,0,0,0,0,0,0,1,0,0,0,1,1,1,1,0,0,1,1,1,1,1,1,0,1,1,0,1,1,0,0,0,1,1,1,1,0,1,1,1,1,0,1,1,1,1,0,1,1,0,0,1,0,1,0,1,0,0,0,1,0,0,0,0,0,0,0,0,0,0,0,0,0,0,0,0,0,0,0,0,0,0,0,0,0,0,0,0,0,0,0,0,0,0,0,0,0,0,0,0,0,0,0,0,0,0,0,0,0,0,0],"split_type":[0,0,0,0,0,0,0,0,0,0,0,0,0,0,0,0,0,0,0,0,0,0,0,0,0,0,0,0,0,0,0,0,0,0,0,0,0,0,0,0,0,0,0,0,0,0,0,0,0,0,0,0,0,0,0,0,0,0,0,0,0,0,0,0,0,0,0,0,0,0,0,0,0,0,0,0,0,0,0,0,0,0,0,0,0,0,0,0,0,0,0,0,0,0,0,0,0,0,0,0,0,0,0,0,0,0,0,0,0,0,0],"sum_hessian":[6.978E3,5.449E3,1.529E3,4.114E3,1.335E3,7.37E2,7.92E2,2.264E3,1.85E3,9.02E2,4.33E2,3.83E2,3.54E2,5.18E2,2.74E2,1.655E3,6.09E2,1.196E3,6.54E2,2.75E2,6.27E2,1.88E2,2.45E2,6.8E1,3.15E2,2.32E2,1.22E2,4.64E2,5.4E1,2.31E2,4.3E1,5.22E2,1.133E3,3.66E2,2.43E2,5.95E2,6.01E2,2.82E2,3.72E2,6.6E1,2.09E2,1.67E2,4.6E2,1.4E2,4.8E1,1.46E2,9.9E1,3.6E1,3.2E1,2.98E2,1.7E1,3.4E1,1.98E2,7.3E1,4.9E1,1.01E2,3.63E2,4.2E1,1.2E1,2.03E2,2.8E1,8.3E1,4.39E2,2.76E2,8.57E2,2.65E2,1.01E2,2.05E2,3.8E1,2.8E1,5.67E2,4.05E2,1.96E2,3.5E1,2.47E2,2.66E2,1.06E2,6E0,6E1,1.77E2,3.2E1,1.51E2,1.6E1,2.84E2,1.76E2,2E1,1.2E2,4.3E1,5E0,1.45E2,1E0,4.8E1,5.1E1,6E0,3E1,3.1E1,1E0,1.04E2,1.94E2,2E0,3.2E1,1.85E2,1.3E1,3.7E1,3.6E1,7E0,9.4E1,1.59E2,2.04E2,9.7E1,1.06E2],"tree_param":{"num_deleted":"0","num_feature":"2","num_nodes":"111","size_leaf_vector":"1"}},{"base_weights":[7.5741336E-2,-2.8522944E0,1.0763704E1,-3.8657315E0,7.6853615E-1,7.545184E0,1.4597017E1,-4.385917E0,-2.6440747E0,-4.9124673E-2,2.9218585E0,5.6697474E0,9.670893E0,1.3271609E1,1.8652979E1,-4.953268E0,-4.033239E0,-3.841541E0,-2.3907902E0,-6.820416E-1,7.612039E-1,2.7152133E0,6.5668445E0,4.732781E0,7.360843E0,9.127821E0,1.3965035E1,1.1285285E1,1.5380133E1,1.765784E1,1.021519E1,-1.7703017E0,-4.8165884E0,-4.7306576E0,-3.8662934E0,-4.9614935E0,-3.4956498E0,-2.637961E0,-1.5533751E0,-1.6944019E0,-3.1072897E-1,-1.2338493E0,1.0046966E0,1.9263458E0,3.4529176E0,7.623054E0,-2.7094576E-1,4.22231E0,6.0989947E0,6.8992186E0,3.67454E0,7.0105643E0,9.627686E0,3.6392725E0,6.79269E0,5.948504E0,1.1756243E1,1.4906883E1,6.4020457E0,1.3765143E1,1.9231335E1,-1.7985159E0,-1.4150082E0,-1.5784472E0,-1.2453846E0,-1.1977241E0,-9.80251E-1,-2.35789E0,-1.3615859E0,-1.142125E0,-8.028012E-1,-8.127652E-1,-2.4158883E-1,-5.872637E-1,-3.477991E-1,-5.829516E-1,-7.417552E-3,-1.7597437E-1,1.9759141E-1,6.9050945E-2,-5.0956446E-1,1.8700288E-1,5.217053E-1,1.3012648E-1,6.252889E-1,9.6646434E-1,2.2425523E0,5.984276E-1,2.3647778E0,1.3271694E0,7.427035E-1,2.2264285E0,1.123629E0,1.4856515E0,2.2524054E0,2.5920334E0,9.409582E-1,2.4264984E0,3.072898E0,2.353796E0,-1.6501213E0,1.7171443E0,3.6442802E0,3.8403533E0,4.8402157E0,-3.5183854E0,4.3621745E0,4.568926E0,6.2687035E0],"categories":[],"categories_nodes":[],"categories_segments":[],"categories_sizes":[],"default_left":[0,0,0,0,0,0,0,0,0,0,0,0,0,0,0,0,0,0,0,0,0,0,0,0,0,0,0,0,0,0,0,0,0,0,0,0,0,0,0,0,0,0,0,0,0,0,0,0,0,0,0,0,0,0,0,0,0,0,0,0,0,0,0,0,0,0,0,0,0,0,0,0,0,0,0,0,0,0,0,0,0,0,0,0,0,0,0,0,0,0,0,0,0,0,0,0,0,0,0,0,0,0,0,0,0,0,0,0,0],"id":9,"left_children":[1,3,5,7,9,11,13,15,17,19,21,23,25,27,29,31,33,35,37,39,41,43,45,47,49,51,53,55,57,59,-1,-1,61,63,65,67,69,71,73,75,77,79,81,83,85,87,-1,89,91,93,-1,95,97,-1,-1,99,101,103,-1,105,107,-1,-1,-1,-1,-1,-1,-1,-1,-1,-1,-1,-1,-1,-1,-1,-1,-1,-1,-1,-1,-1,-1,-1,-1,-1,-1,-1,-1,-1,-1,-1,-1,-1,-1,-1,-1,-1,-1,-1,-1,-1,-1,-1,-1,-1,-1,-1,-1],"loss_changes":[2.1843669E5,2.010807E4,1.8408594E4,2.7089297E3,2.111208E3,3.2062305E3,3.4294844E3,5.804961E2,3.7934277E2,4.4671664E2,2.3073169E2,6.5758984E2,7.633672E2,2.0001172E3,1.9423242E3,1.2002344E2,1.978086E2,6.865503E1,2.1530566E2,1.8328967E2,1.8680795E2,1.760813E2,1.4101282E2,1.7231299E2,2.6295703E2,2.9445703E2,3.7785205E2,6.112031E2,3.8421094E2,7.030469E2,0E0,0E0,9.026953E1,8.703125E1,1.00458984E2,2.5605469E1,3.39729E1,1.0450928E2,3.6590332E1,5.4364838E1,9.638368E1,2.8964722E1,9.4408295E1,3.5402283E1,1.2574963E2,6.187561E0,0E0,6.2988525E1,2.0563623E2,1.3232568E2,0E0,4.0849194E2,1.7667773E2,0E0,0E0,5.645346E2,5.159531E2,3.981328E2,0E0,1.1391797E3,4.1436328E2,0E0,0E0,0E0,0E0,0E0,0E0,0E0,0E0,0E0,0E0,0E0,0E0,0E0,0E0,0E0,0E0,0E0,0E0,0E0,0E0,0E0,0E0,0E0,0E0,0E0,0E0,0E0,0E0,0E0,0E0,0E0,0E0,0E0,0E0,0E0,0E0,0E0,0E0,0E0,0E0,0E0,0E0,0E0,0E0,0E0,0E0,0E0,0E0],"parents":[2147483647,0,0,1,1,2,2,3,3,4,4,5,5,6,6,7,7,8,8,9,9,10,10,11,11,12,12,13,13,14,14,15,15,16,16,17,17,18,18,19,19,20,20,21,21,22,22,23,23,24,24,25,25,26,26,27,27,28,28,29,29,32,32,33,33,34,34,35,35,36,36,37,37,38,38,39,39,40,40,41,41,42,42,43,43,44,44,45,45,47,47,48,48,49,49,51,51,52,52,55,55,56,56,57,57,59,59,60,60],"right_children":[2,4,6,8,10,12,14,16,18,20,22,24,26,28,30,32,34,36,38,40,42,44,46,48,50,52,54,56,58,60,-1,-1,62,64,66,68,70,72,74,76,78,80,82,84,86,88,-1,90,92,94,-1,96,98,-1,-1,100,102,104,-1,106,108,-1,-1,-1,-1,-1,-1,-1,-1,-1,-1,-1,-1,-1,-1,-1,-1,-1,-1,-1,-1,-1,-1,-1,-1,-1,-1,-1,-1,-1,-1,-1,-1,-1,-1,-1,-1,-1,-1,-1,-1,-1,-1,-1,-1,-1,-1,-1,-1],"split_conditions":[6.421577E-1,-1.88662E-1,1.8021266E0,-5.645515E-1,2.1245313E-1,1.1946753E0,2.5668044E0,-7.5798196E-1,-9.5771044E-1,1.3494139E-2,1.7062513E0,3.5885888E-1,1.4126538E0,-1.552762E-2,1.2174067E0,-1.3041071E0,-1.0779856E0,-1.8726953E0,-3.8704422E-1,-6.634045E-1,-1.3041071E0,5.0076526E-1,2.2448928E0,1.0351257E0,1.5517055E0,1.4033892E0,1.7371469E0,-1.5915086E0,1.5517055E0,2.6858344E0,1.021519E1,-1.7703017E0,-8.350423E-1,-6.5775776E-1,1.2036232E0,-5.519457E-1,-3.8704422E-1,1.6025289E0,3.7242588E-1,-1.869494E-2,1.1581389E0,4.5222625E-2,5.369214E-1,-1.6479181E0,1.4126538E0,2.586054E-1,-2.7094576E-1,1.8807478E-1,1.0652198E0,8.009511E-1,3.67454E0,1.3341982E0,-5.915146E-1,3.6392725E0,6.79269E0,-1.6189011E0,1.8433632E0,2.121504E0,6.4020457E0,-1.8726953E0,-5.8112186E-1,-1.7985159E0,-1.4150082E0,-1.5784472E0,-1.2453846E0,-1.1977241E0,-9.80251E-1,-2.35789E0,-1.3615859E0,-1.142125E0,-8.028012E-1,-8.127652E-1,-2.4158883E-1,-5.872637E-1,-3.477991E-1,-5.829516E-1,-7.417552E-3,-1.7597437E-1,1.9759141E-1,6.9050945E-2,-5.0956446E-1,1.8700288E-1,5.217053E-1,1.3012648E-1,6.252889E-1,9.6646434E-1,2.2425523E0,5.984276E-1,2.3647778E0,1.3271694E0,7.427035E-1,2.2264285E0,1.123629E0,1.4856515E0,2.2524054E0,2.5920334E0,9.409582E-1,2.4264984E0,3.072898E0,2.353796E0,-1.6501213E0,1.7171443E0,3.6442802E0,3.8403533E0,4.8402157E0,-3.5183854E0,4.3621745E0,4.568926E0,6.2687035E0],"split_indices":[0,0,0,0,0,0,0,0,1,0,1,1,1,1,1,1,1,1,0,1,1,0,1,0,1,0,0,1,1,0,0,0,0,0,1,0,0,1,1,0,1,0,1,1,1,0,0,1,0,0,0,0,1,0,0,1,0,0,0,1,1,0,0,0,0,0,0,0,0,0,0,0,0,0,0,0,0,0,0,0,0,0,0,0,0,0,0,0,0,0,0,0,0,0,0,0,0,0,0,0,0,0,0,0,0,0,0,0,0],"split_type":[0,0,0,0,0,0,0,0,0,0,0,0,0,0,0,0,0,0,0,0,0,0,0,0,0,0,0,0,0,0,0,0,0,0,0,0,0,0,0,0,0,0,0,0,0,0,0,0,0,0,0,0,0,0,0,0,0,0,0,0,0,0,0,0,0,0,0,0,0,0,0,0,0,0,0,0,0,0,0,0,0,0,0,0,0,0,0,0,0,0,0,0,0,0,0,0,0,0,0,0,0,0,0,0,0,0,0,0,0],"sum_hessian":[6.978E3,5.478E3,1.5E3,4.28E3,1.198E3,8.17E2,6.83E2,3E3,1.28E3,8.69E2,3.29E2,4.36E2,3.81E2,5.18E2,1.65E2,1.145E3,1.855E3,2.21E2,1.059E3,4.88E2,3.81E2,3.13E2,1.6E1,2.83E2,1.53E2,3.41E2,4E1,2.7E2,2.48E2,1.57E2,8E0,1.39E2,1.006E3,3.53E2,1.502E3,4.9E1,1.72E2,8.16E2,2.43E2,1.3E2,3.58E2,4.1E1,3.4E2,1.53E2,1.6E2,1.4E1,2E0,2.09E2,7.4E1,1.42E2,1.1E1,6.8E1,2.73E2,3.5E1,5E0,2.3E1,2.47E2,2.33E2,1.5E1,4.8E1,1.09E2,7.4E1,9.32E2,1.8E2,1.73E2,1.236E3,2.66E2,4E0,4.5E1,1.22E2,5E1,7.85E2,3.1E1,1.18E2,1.25E2,1.13E2,1.7E1,2.79E2,7.9E1,1E1,3.1E1,2.25E2,1.15E2,1.5E1,1.38E2,1.53E2,7E0,1E0,1.3E1,1.86E2,2.3E1,4.6E1,2.8E1,3.6E1,1.06E2,4.7E1,2.1E1,8.2E1,1.91E2,2E1,3E0,1.6E1,2.31E2,9E1,1.43E2,1E0,4.7E1,3.5E1,7.4E1],"tree_param":{"num_deleted":"0","num_feature":"2","num_nodes":"109","size_leaf_vector":"1"}},{"base_weights":[6.219778E-2,-2.0245926E0,7.495496E0,-2.7101321E0,4.8550874E-1,4.4585285E0,9.604982E0,-3.194609E0,-2.0418675E0,-2.0277919E-1,1.6532108E0,4.046417E0,7.1966805E0,8.4365425E0,1.2238348E1,-3.4310102E0,-2.9030726E0,-2.3944159E0,-1.5882382E0,-4.7859108E-1,3.3968988E-1,1.4895667E0,4.966166E0,2.1740391E0,4.500029E0,5.583648E0,8.492298E0,7.9433527E0,1.2733503E1,1.1310156E1,1.7565094E1,-3.5199726E0,-2.513002E0,-3.6120942E0,-2.7621057E0,-2.5277743E0,-1.5314938E0,-2.9386795E0,-1.4384866E0,-7.204872E-1,3.420814E-1,-7.0667404E-1,5.0282264E-1,8.0888E-1,2.0282571E0,1.6915146E0,-2.1675569E-1,9.541041E-1,2.738142E0,3.5414739E0,5.547127E0,4.6095023E0,1.9719483E0,2.7534308E0,5.9557953E0,8.4067745E0,5.365162E0,1.12290535E1,1.9584183E1,1.054929E1,1.6208496E1,1.5526771E1,7.8564243E0,-1.2580458E0,-1.0303972E0,-7.182932E-1,-9.236833E-1,-6.741932E-1,-1.1328453E0,-8.443299E-1,-5.2723205E-1,-1.2075813E0,-7.420555E-1,-5.629735E-1,-1.5048832E-1,-1.3488454E0,-7.3926985E-1,-5.011588E-1,-3.080638E-1,-3.8544068E-1,-1.3877875E-1,1.591796E-2,3.3909148E-1,-3.8364312E-1,2.3830034E-1,1.308412E-1,7.2946537E-1,-2.6219168E-1,3.054477E-1,3.8746053E-1,7.832994E-1,-6.7182183E-1,5.002359E-1,1.0982271E0,3.788846E-1,1.1202692E0,8.097597E-1,1.7050234E0,-8.5748523E-1,1.5254773E0,5.6429994E-1,6.413971E-1,2.5132117E0,2.2706683E0,3.7441862E0,7.5590247E-1,2.5051723E0,2.5935454E0,4.300749E0,7.3896227E0,3.634073E0,2.9733791E0,3.6431868E0,7.497437E-1,4.9785166E0,4.19392E0,7.090384E0],"categories":[],"categories_nodes":[],"categories_segments":[],"categories_sizes":[],"default_left":[0,0,0,0,0,0,0,0,0,0,0,0,0,0,0,0,0,0,0,0,0,0,0,0,0,0,0,0,0,0,0,0,0,0,0,0,0,0,0,0,0,0,0,0,0,0,0,0,0,0,0,0,0,0,0,0,0,0,0,0,0,0,0,0,0,0,0,0,0,0,0,0,0,0,0,0,0,0,0,0,0,0,0,0,0,0,0,0,0,0,0,0,0,0,0,0,0,0,0,0,0,0,0,0,0,0,0,0,0,0,0,0,0,0,0,0,0],"id":10,"left_children":[1,3,5,7,9,11,13,15,17,19,21,23,25,27,29,31,33,35,37,39,41,43,45,47,49,51,53,55,57,59,61,63,65,67,69,71,73,75,77,79,81,83,85,87,89,-1,-1,91,93,95,97,99,-1,-1,101,103,105,107,109,111,113,115,-1,-1,-1,-1,-1,-1,-1,-1,-1,-1,-1,-1,-1,-1,-1,-1,-1,-1,-1,-1,-1,-1,-1,-1,-1,-1,-1,-1,-1,-1,-1,-1,-1,-1,-1,-1,-1,-1,-1,-1,-1,-1,-1,-1,-1,-1,-1,-1,-1,-1,-1,-1,-1,-1,-1],"loss_changes":[1.0827158E5,9.379531E3,9.759031E3,1.3794863E3,9.406821E2,6.8065625E2,2.6721406E3,1.6095898E2,2.8438428E2,1.1043209E2,2.278938E2,4.5650098E2,1.2186133E2,1.2297227E3,1.1610039E3,1.02549805E2,1.0166504E2,1.1258789E2,1.557373E2,9.732152E1,4.2858707E1,1.5053131E2,8.055432E1,7.239789E1,4.229873E2,7.2943115E0,2.0137451E1,6.3114844E2,4.2939844E2,7.123086E2,2.7886426E2,5.690625E1,9.574585E-1,3.2263916E1,4.4260742E1,6.1135742E1,4.810257E1,4.6557556E1,6.6479004E1,5.4416733E1,2.545515E1,3.0214375E1,2.6720978E1,6.604416E1,9.580029E1,0E0,0E0,8.574524E1,9.609332E1,2.7749023E1,2.5565967E2,2.0270569E1,0E0,0E0,9.303052E1,1.5371406E3,7.3501E2,3.095547E2,7.872583E1,9.1265625E1,1.1751074E2,9.606055E1,0E0,0E0,0E0,0E0,0E0,0E0,0E0,0E0,0E0,0E0,0E0,0E0,0E0,0E0,0E0,0E0,0E0,0E0,0E0,0E0,0E0,0E0,0E0,0E0,0E0,0E0,0E0,0E0,0E0,0E0,0E0,0E0,0E0,0E0,0E0,0E0,0E0,0E0,0E0,0E0,0E0,0E0,0E0,0E0,0E0,0E0,0E0,0E0,0E0,0E0,0E0,0E0,0E0,0E0,0E0],"parents":[2147483647,0,0,1,1,2,2,3,3,4,4,5,5,6,6,7,7,8,8,9,9,10,10,11,11,12,12,13,13,14,14,15,15,16,16,17,17,18,18,19,19,20,20,21,21,22,22,23,23,24,24,25,25,26,26,27,27,28,28,29,29,30,30,31,31,32,32,33,33,34,34,35,35,36,36,37,37,38,38,39,39,40,40,41,41,42,42,43,43,44,44,47,47,48,48,49,49,50,50,51,51,54,54,55,55,56,56,57,57,58,58,59,59,60,60,61,61],"right_children":[2,4,6,8,10,12,14,16,18,20,22,24,26,28,30,32,34,36,38,40,42,44,46,48,50,52,54,56,58,60,62,64,66,68,70,72,74,76,78,80,82,84,86,88,90,-1,-1,92,94,96,98,100,-1,-1,102,104,106,108,110,112,114,116,-1,-1,-1,-1,-1,-1,-1,-1,-1,-1,-1,-1,-1,-1,-1,-1,-1,-1,-1,-1,-1,-1,-1,-1,-1,-1,-1,-1,-1,-1,-1,-1,-1,-1,-1,-1,-1,-1,-1,-1,-1,-1,-1,-1,-1,-1,-1,-1,-1,-1,-1,-1,-1,-1,-1],"split_conditions":[6.273231E-1,-1.88662E-1,1.5607635E0,-6.2665045E-1,9.095469E-2,1.1897949E0,2.4330666E0,-7.4464685E-1,-4.7925255E-1,1.3494139E-2,1.7062513E0,-8.0364114E-1,1.0489162E0,1.1712208E0,8.0093515E-1,1.3582567E0,-1.1404774E0,1.1581389E0,-1.2606975E0,9.6827507E-1,-1.2457119E0,2.9319668E-1,2.2448928E0,8.503832E-1,1.0131596E0,1.4523731E0,1.8246236E0,2.2210567E0,1.7062513E0,2.8540103E0,1.5517055E0,-8.30676E-1,-7.5021297E-1,-2.398073E0,1.7839329E0,-2.2918928E0,-5.2983826E-1,-1.8726953E0,4.9274418E-1,-9.829486E-2,-4.878562E-2,7.2040476E-2,1.386223E0,-1.1732461E0,-7.057361E-2,1.6915146E0,-2.1675569E-1,-1.3430239E0,1.1319568E0,9.02672E-1,1.142354E0,1.4126538E0,1.9719483E0,2.7534308E0,2.090587E0,2.1570075E0,2.3280218E0,2.1570075E0,1.9547478E0,3.6302347E-2,-8.7228864E-1,2.763161E0,7.8564243E0,-1.2580458E0,-1.0303972E0,-7.182932E-1,-9.236833E-1,-6.741932E-1,-1.1328453E0,-8.443299E-1,-5.2723205E-1,-1.2075813E0,-7.420555E-1,-5.629735E-1,-1.5048832E-1,-1.3488454E0,-7.3926985E-1,-5.011588E-1,-3.080638E-1,-3.8544068E-1,-1.3877875E-1,1.591796E-2,3.3909148E-1,-3.8364312E-1,2.3830034E-1,1.308412E-1,7.2946537E-1,-2.6219168E-1,3.054477E-1,3.8746053E-1,7.832994E-1,-6.7182183E-1,5.002359E-1,1.0982271E0,3.788846E-1,1.1202692E0,8.097597E-1,1.7050234E0,-8.5748523E-1,1.5254773E0,5.6429994E-1,6.413971E-1,2.5132117E0,2.2706683E0,3.7441862E0,7.5590247E-1,2.5051723E0,2.5935454E0,4.300749E0,7.3896227E0,3.634073E0,2.9733791E0,3.6431868E0,7.497437E-1,4.9785166E0,4.19392E0,7.090384E0],"split_indices":[0,0,0,0,0,1,0,0,0,0,1,1,0,1,1,1,1,1,1,1,1,0,1,0,0,1,1,0,1,0,1,0,0,1,1,1,0,1,1,0,0,0,1,1,1,0,0,1,0,0,1,1,0,0,1,0,0,0,1,1,1,0,0,0,0,0,0,0,0,0,0,0,0,0,0,0,0,0,0,0,0,0,0,0,0,0,0,0,0,0,0,0,0,0,0,0,0,0,0,0,0,0,0,0,0,0,0,0,0,0,0,0,0,0,0,0,0],"split_type":[0,0,0,0,0,0,0,0,0,0,0,0,0,0,0,0,0,0,0,0,0,0,0,0,0,0,0,0,0,0,0,0,0,0,0,0,0,0,0,0,0,0,0,0,0,0,0,0,0,0,0,0,0,0,0,0,0,0,0,0,0,0,0,0,0,0,0,0,0,0,0,0,0,0,0,0,0,0,0,0,0,0,0,0,0,0,0,0,0,0,0,0,0,0,0,0,0,0,0,0,0,0,0,0,0,0,0,0,0,0,0,0,0,0,0,0,0],"sum_hessian":[6.978E3,5.449E3,1.529E3,4.28E3,1.169E3,6.28E2,9.01E2,2.479E3,1.801E3,7.36E2,4.33E2,5.48E2,8E1,6.27E2,2.74E2,1.363E3,1.116E3,1.011E3,7.9E2,4.88E2,2.48E2,4.14E2,1.9E1,1.08E2,4.4E2,3.8E1,4.2E1,5.65E2,6.2E1,2.36E2,3.8E1,1.24E3,1.23E2,1.81E2,9.35E2,8.74E2,1.37E2,7.7E1,7.13E2,3.77E2,1.11E2,3.3E1,2.15E2,1.84E2,2.3E2,1.7E1,2E0,3.5E1,7.3E1,2.32E2,2.08E2,2.2E1,1.6E1,3.1E1,1.1E1,4.77E2,8.8E1,5.3E1,9E0,2.07E2,2.9E1,3.3E1,5E0,1.34E2,1.106E3,1.06E2,1.7E1,2.1E1,1.6E2,8.87E2,4.8E1,2.8E1,8.46E2,1.02E2,3.5E1,1.6E1,6.1E1,4.54E2,2.59E2,1.17E2,2.6E2,8.2E1,2.9E1,2.4E1,9E0,2.09E2,6E0,2E1,1.64E2,1.03E2,1.27E2,6E0,2.9E1,4.4E1,2.9E1,1.86E2,4.6E1,2.05E2,3E0,1.8E1,4E0,5E0,6E0,3.98E2,7.9E1,4.6E1,4.2E1,3.1E1,2.2E1,4E0,5E0,1.53E2,5.4E1,1E0,2.8E1,3E1,3E0],"tree_param":{"num_deleted":"0","num_feature":"2","num_nodes":"117","size_leaf_vector":"1"}},{"base_weights":[5.2609008E-2,-1.3850927E0,5.422984E0,-1.9472842E0,2.7784064E-1,3.7136743E0,7.2520843E0,-2.3187988E0,-1.5689942E0,-2.492971E-1,1.2487131E0,2.8404481E0,4.7117276E0,6.5517526E0,9.964141E0,-3.4445012E0,-2.2570195E0,-1.9066966E0,-1.3921914E0,-1.1677133E0,-1.05695985E-1,8.3911693E-1,1.8746767E0,2.289786E0,4.0634503E0,4.279577E0,6.410062E0,5.916713E0,9.46457E0,8.981836E0,1.47414E1,-1.1049857E0,-8.5646206E-1,-2.3753119E0,-1.9427885E0,-1.9626888E0,-1.2660571E0,-1.6434078E0,-1.0881242E0,-1.9034814E0,-1.0608538E-1,-4.4404954E-1,1.7810194E-1,7.1895653E-1,3.0582123E0,1.6533309E0,4.8122854E0,2.3709114E0,-2.7274108E0,7.0531435E0,3.5644662E0,2.098575E0,4.4988375E0,5.618775E0,7.692579E0,-5.7747703E0,6.0551443E0,9.604052E0,-6.516083E-1,1.5299118E1,8.08804E0,1.1078809E1,5.762336E0,-8.1848174E-1,-6.866979E-1,-8.735537E-1,-5.659644E-1,-5.045027E-1,-6.3767266E-1,-3.020516E-1,-9.1435385E-1,-2.743779E-1,-5.042354E-1,-3.789197E-1,-2.5267193E-1,-4.758202E-1,-8.7459046E-1,-1.3959503E-1,2.9393077E-1,-1.7412889E-1,2.2534235E-1,1.744798E-1,-8.352158E-3,1.5804723E-1,3.8320893E-1,1.0986286E0,-1.7340547E-1,-1.557068E-1,5.645036E-1,1.5089558E0,3.3022156E-1,6.823037E-1,2.5468507E0,-9.7290117E-1,-9.975586E-2,-9.8898314E-2,2.4178486E0,9.316769E-1,2.115948E0,1.0818279E0,-4.4539186E-1,3.3686259E0,1.3128328E0,2.0235794E0,3.9566347E-1,1.4994446E0,3.28949E0,-2.882538E-2,-3.4264286E0,1.1697366E0,1.934311E0,2.4511423E0,3.5657563E0,2.8042624E0,6.5029893E0,2.4092026E-1,2.669264E0,4.7798634E0,1.4519669E0],"categories":[],"categories_nodes":[],"categories_segments":[],"categories_sizes":[],"default_left":[0,0,0,0,0,0,0,0,0,0,0,0,0,0,0,0,0,0,0,0,0,0,0,0,0,0,0,0,0,0,0,0,0,0,0,0,0,0,0,0,0,0,0,0,0,0,0,0,0,0,0,0,0,0,0,0,0,0,0,0,0,0,0,0,0,0,0,0,0,0,0,0,0,0,0,0,0,0,0,0,0,0,0,0,0,0,0,0,0,0,0,0,0,0,0,0,0,0,0,0,0,0,0,0,0,0,0,0,0,0,0,0,0,0,0,0,0,0,0],"id":11,"left_children":[1,3,5,7,9,11,13,15,17,19,21,23,25,27,29,31,33,35,37,39,41,43,45,47,49,51,53,55,57,59,61,-1,-1,63,65,67,69,71,73,75,77,79,81,83,85,87,89,91,93,95,97,99,101,103,105,107,109,111,-1,113,115,117,-1,-1,-1,-1,-1,-1,-1,-1,-1,-1,-1,-1,-1,-1,-1,-1,-1,-1,-1,-1,-1,-1,-1,-1,-1,-1,-1,-1,-1,-1,-1,-1,-1,-1,-1,-1,-1,-1,-1,-1,-1,-1,-1,-1,-1,-1,-1,-1,-1,-1,-1,-1,-1,-1,-1,-1,-1],"loss_changes":[5.3892355E4,5.1480293E3,4.5815273E3,5.7468555E2,7.12714E2,6.524629E2,1.2851445E3,1.3646191E2,1.1926709E2,1.18969246E2,1.24059204E2,2.6681445E2,2.3311523E2,9.946621E2,5.433467E2,4.4088135E0,6.8575195E1,2.2588623E1,1.0087549E2,9.509375E1,7.516989E1,7.726218E1,1.1753754E2,1.2246753E2,1.628274E2,1.2732617E2,2.7815674E1,7.9402734E2,1.8316797E2,5.651162E2,1.6344727E2,0E0,0E0,3.720166E1,2.4154785E1,2.5766357E1,2.41818E1,1.8457397E1,2.5218567E1,1.8500061E1,2.0349628E1,5.8627045E1,3.541562E1,2.979686E1,3.5054626E1,9.0762054E1,4.96109E0,1.4671973E2,5.095581E0,1.2896173E2,1.5419263E2,1.5660301E2,1.647832E2,2.1876172E2,1.5680872E2,1.9129613E2,3.6757422E2,2.2672949E2,0E0,3.2876416E2,6.3565283E2,3.7714856E2,0E0,0E0,0E0,0E0,0E0,0E0,0E0,0E0,0E0,0E0,0E0,0E0,0E0,0E0,0E0,0E0,0E0,0E0,0E0,0E0,0E0,0E0,0E0,0E0,0E0,0E0,0E0,0E0,0E0,0E0,0E0,0E0,0E0,0E0,0E0,0E0,0E0,0E0,0E0,0E0,0E0,0E0,0E0,0E0,0E0,0E0,0E0,0E0,0E0,0E0,0E0,0E0,0E0,0E0,0E0,0E0,0E0],"parents":[2147483647,0,0,1,1,2,2,3,3,4,4,5,5,6,6,7,7,8,8,9,9,10,10,11,11,12,12,13,13,14,14,15,15,16,16,17,17,18,18,19,19,20,20,21,21,22,22,23,23,24,24,25,25,26,26,27,27,28,28,29,29,30,30,33,33,34,34,35,35,36,36,37,37,38,38,39,39,40,40,41,41,42,42,43,43,44,44,45,45,46,46,47,47,48,48,49,49,50,50,51,51,52,52,53,53,54,54,55,55,56,56,57,57,59,59,60,60,61,61],"right_children":[2,4,6,8,10,12,14,16,18,20,22,24,26,28,30,32,34,36,38,40,42,44,46,48,50,52,54,56,58,60,62,-1,-1,64,66,68,70,72,74,76,78,80,82,84,86,88,90,92,94,96,98,100,102,104,106,108,110,112,-1,114,116,118,-1,-1,-1,-1,-1,-1,-1,-1,-1,-1,-1,-1,-1,-1,-1,-1,-1,-1,-1,-1,-1,-1,-1,-1,-1,-1,-1,-1,-1,-1,-1,-1,-1,-1,-1,-1,-1,-1,-1,-1,-1,-1,-1,-1,-1,-1,-1,-1,-1,-1,-1,-1,-1,-1,-1,-1,-1],"split_conditions":[6.5639204E-1,-3.5228005E-1,1.7690184E0,-6.739347E-1,9.095469E-2,1.1946753E0,7.116066E-1,-1.7305232E0,-4.8619792E-1,-1.1732461E0,5.0076526E-1,5.023703E-1,9.6827507E-1,2.6858344E0,2.5668044E0,-1.8726953E0,7.762947E-1,-3.9272705E-1,-5.2983826E-1,-4.878562E-2,-8.0496445E-2,1.7062513E0,1.4126538E0,4.727654E-1,6.002713E-1,-1.0779856E0,1.678127E0,-1.8726953E0,5.369214E-1,1.8906622E0,1.2174067E0,-1.1049857E0,-8.5646206E-1,-8.0655E-1,-8.325358E-1,-6.0652685E-1,-3.636497E-1,-6.6020614E-1,5.899787E-1,-8.0496445E-2,7.2040476E-2,1.472729E0,-3.694585E-2,7.62706E-1,2.2448928E0,-1.0960307E0,1.9082617E0,4.6206188E-1,8.009511E-1,8.009511E-1,1.5517055E0,-1.2606975E0,-1.0150106E0,1.4523731E0,1.4955773E0,2.0475225E0,-1.1895524E0,-4.592458E-2,-6.516083E-1,1.0735395E0,1.9491658E0,9.9638844E-1,5.762336E0,-8.1848174E-1,-6.866979E-1,-8.735537E-1,-5.659644E-1,-5.045027E-1,-6.3767266E-1,-3.020516E-1,-9.1435385E-1,-2.743779E-1,-5.042354E-1,-3.789197E-1,-2.5267193E-1,-4.758202E-1,-8.7459046E-1,-1.3959503E-1,2.9393077E-1,-1.7412889E-1,2.2534235E-1,1.744798E-1,-8.352158E-3,1.5804723E-1,3.8320893E-1,1.0986286E0,-1.7340547E-1,-1.557068E-1,5.645036E-1,1.5089558E0,3.3022156E-1,6.823037E-1,2.5468507E0,-9.7290117E-1,-9.975586E-2,-9.8898314E-2,2.4178486E0,9.316769E-1,2.115948E0,1.0818279E0,-4.4539186E-1,3.3686259E0,1.3128328E0,2.0235794E0,3.9566347E-1,1.4994446E0,3.28949E0,-2.882538E-2,-3.4264286E0,1.1697366E0,1.934311E0,2.4511423E0,3.5657563E0,2.8042624E0,6.5029893E0,2.4092026E-1,2.669264E0,4.7798634E0,1.4519669E0],"split_indices":[0,0,0,0,0,0,1,1,1,1,0,1,1,0,0,1,1,0,0,0,0,1,1,1,1,1,1,1,1,0,1,0,0,0,0,0,0,0,1,0,0,1,0,1,1,1,1,1,0,0,1,1,1,1,0,0,1,1,0,1,0,1,0,0,0,0,0,0,0,0,0,0,0,0,0,0,0,0,0,0,0,0,0,0,0,0,0,0,0,0,0,0,0,0,0,0,0,0,0,0,0,0,0,0,0,0,0,0,0,0,0,0,0,0,0,0,0,0,0],"split_type":[0,0,0,0,0,0,0,0,0,0,0,0,0,0,0,0,0,0,0,0,0,0,0,0,0,0,0,0,0,0,0,0,0,0,0,0,0,0,0,0,0,0,0,0,0,0,0,0,0,0,0,0,0,0,0,0,0,0,0,0,0,0,0,0,0,0,0,0,0,0,0,0,0,0,0,0,0,0,0,0,0,0,0,0,0,0,0,0,0,0,0,0,0,0,0,0,0,0,0,0,0,0,0,0,0,0,0,0,0,0,0,0,0,0,0,0,0,0,0],"sum_hessian":[6.978E3,5.505E3,1.473E3,4.114E3,1.391E3,7.63E2,7.1E2,2.073E3,2.041E3,9.02E2,4.89E2,4.09E2,3.54E2,5.67E2,1.43E2,1.05E2,1.968E3,6.98E2,1.343E3,1.21E2,7.81E2,2.97E2,1.92E2,2.84E2,1.25E2,2.85E2,6.9E1,4.68E2,9.9E1,1.21E2,2.2E1,7.1E1,3.4E1,1.425E3,5.43E2,6.4E2,5.8E1,7.33E2,6.1E2,7.1E1,5E1,3.56E2,4.25E2,2.83E2,1.4E1,1.8E2,1.2E1,2.8E2,4E0,1.6E1,1.09E2,2.7E1,2.58E2,4.6E1,2.3E1,5E0,4.63E2,9.8E1,1E0,1.3E1,1.08E2,1.4E1,8E0,2.74E2,1.151E3,2.7E1,5.16E2,2.39E2,4.01E2,5.2E1,6E0,3.7E1,6.96E2,3.54E2,2.56E2,5.6E1,1.5E1,3.8E1,1.2E1,3.2E2,3.6E1,1.43E2,2.82E2,2.12E2,7.1E1,1.2E1,2E0,1.7E1,1.63E2,1.1E1,1E0,2.77E2,3E0,3E0,1E0,2E0,1.4E1,9.8E1,1.1E1,1.9E1,8E0,3E0,2.55E2,3.6E1,1E1,1.4E1,9E0,3E0,2E0,7.3E1,3.9E2,6.3E1,3.5E1,8E0,5E0,1.1E1,9.7E1,7E0,7E0],"tree_param":{"num_deleted":"0","num_feature":"2","num_nodes":"119","size_leaf_vector":"1"}},{"base_weights":[4.3034192E-2,-9.3554777E-1,3.9713912E0,-1.3123312E0,4.4478145E-1,3.052789E0,5.640297E0,-1.5165604E0,-8.4434265E-1,7.507794E-2,1.2292432E0,2.8095696E0,5.9873323E0,5.098749E0,8.041269E0,-2.3291962E0,-1.473798E0,-1.2054209E0,-6.7104965E-1,-9.116989E-2,5.6147146E-1,1.0415645E0,2.3099043E0,2.0992541E0,3.4546416E0,4.360038E0,1.026537E1,4.784539E0,8.866888E0,1.5896368E1,6.845733E0,-2.1181645E0,-6.367826E0,-1.6398666E0,-1.2507436E0,-1.5164816E0,-1.0723813E0,-8.0152553E-1,-1.1434513E-1,-4.125963E-1,1.6605054E-1,2.0988907E-1,1.2087829E0,1.1398374E0,-9.5213795E-1,1.1817915E0,3.319465E0,1.7756963E0,2.9227583E0,1.4981794E0,3.728003E0,7.953305E-1,5.0655203E0,4.017845E0,4.681961E0,6.0423107E0,4.3131976E0,1.0788452E1,6.2260947E0,3.6760254E0,2.0019493E1,3.2268164E0,8.9955435E0,-7.7744395E-1,-3.9589643E-1,-2.6210945E0,-7.2201437E-1,-5.4477847E-1,-4.4359967E-1,-1.2869018E-1,-3.9115447E-1,-4.1175872E-1,-1.1364497E0,-4.337822E-1,-2.773564E-1,-2.327787E-1,-9.0726787E-1,-7.7267796E-2,2.9823637E-1,-5.9280615E-2,-4.0084437E-1,-2.3383237E-1,8.746878E-2,6.842776E-1,1.8788874E-2,5.267883E-1,6.345537E-2,1.3641329E-1,4.278273E-1,-1.054596E-1,-7.998219E-1,9.7857666E-1,1.7632999E-1,1.604487E0,8.6389995E-1,5.5628514E-1,-4.9654543E-1,1.8236344E0,6.3564336E-1,7.0403117E-1,-9.2994493E-1,1.150194E0,-3.2351482E-1,2.425545E0,1.112789E0,2.0309763E0,6.225605E-1,1.3962878E0,2.944144E0,1.4667578E-1,1.5584575E0,8.506714E-1,3.5166113E0,-1.6081177E0,2.526291E0,1.6416962E0,3.7594604E-1,2.8240197E0,7.350141E0,7.3431945E-1,1.8195145E0,2.356659E0,4.4140215E0],"categories":[],"categories_nodes":[],"categories_segments":[],"categories_sizes":[],"default_left":[0,0,0,0,0,0,0,0,0,0,0,0,0,0,0,0,0,0,0,0,0,0,0,0,0,0,0,0,0,0,0,0,0,0,0,0,0,0,0,0,0,0,0,0,0,0,0,0,0,0,0,0,0,0,0,0,0,0,0,0,0,0,0,0,0,0,0,0,0,0,0,0,0,0,0,0,0,0,0,0,0,0,0,0,0,0,0,0,0,0,0,0,0,0,0,0,0,0,0,0,0,0,0,0,0,0,0,0,0,0,0,0,0,0,0,0,0,0,0,0,0,0,0],"id":12,"left_children":[1,3,5,7,9,11,13,15,17,19,21,23,25,27,29,31,33,35,37,39,41,43,45,47,49,51,53,55,57,59,61,63,65,67,69,71,73,75,77,79,81,83,85,87,89,91,93,95,97,99,101,-1,103,-1,105,107,109,111,113,115,117,119,121,-1,-1,-1,-1,-1,-1,-1,-1,-1,-1,-1,-1,-1,-1,-1,-1,-1,-1,-1,-1,-1,-1,-1,-1,-1,-1,-1,-1,-1,-1,-1,-1,-1,-1,-1,-1,-1,-1,-1,-1,-1,-1,-1,-1,-1,-1,-1,-1,-1,-1,-1,-1,-1,-1,-1,-1,-1,-1,-1,-1],"loss_changes":[2.6832521E4,2.9068193E3,2.1168027E3,4.1830225E2,3.476396E2,6.25542E2,6.000176E2,1.02729004E2,8.278778E1,6.603446E1,7.547589E1,3.7443213E2,4.2863354E2,4.3709082E2,7.2698096E2,1.15206055E2,1.0555713E2,1.6251343E1,6.564441E1,5.0419067E1,4.708362E1,6.55452E1,5.9855377E1,1.0112402E2,2.2706201E2,4.8057556E1,2.5160791E2,1.968457E2,8.506372E1,4.806538E2,5.8559155E2,5.1382446E1,4.4664032E1,4.4484863E1,5.372876E1,3.6331512E1,1.5564941E1,3.9356384E1,2.7719461E1,5.3545265E1,4.04566E1,4.1334396E1,3.946334E1,6.0933197E1,1.5533183E1,3.2680943E1,1.047464E1,8.0989746E1,2.6875787E2,2.2187457E2,1.9820312E2,0E0,1.1334515E2,0E0,2.9493515E1,4.778152E2,9.314253E2,8.55564E1,4.266029E2,1.0551117E1,1.4957275E2,5.37023E1,2.0382202E2,0E0,0E0,0E0,0E0,0E0,0E0,0E0,0E0,0E0,0E0,0E0,0E0,0E0,0E0,0E0,0E0,0E0,0E0,0E0,0E0,0E0,0E0,0E0,0E0,0E0,0E0,0E0,0E0,0E0,0E0,0E0,0E0,0E0,0E0,0E0,0E0,0E0,0E0,0E0,0E0,0E0,0E0,0E0,0E0,0E0,0E0,0E0,0E0,0E0,0E0,0E0,0E0,0E0,0E0,0E0,0E0,0E0,0E0,0E0,0E0],"parents":[2147483647,0,0,1,1,2,2,3,3,4,4,5,5,6,6,7,7,8,8,9,9,10,10,11,11,12,12,13,13,14,14,15,15,16,16,17,17,18,18,19,19,20,20,21,21,22,22,23,23,24,24,25,25,26,26,27,27,28,28,29,29,30,30,31,31,32,32,33,33,34,34,35,35,36,36,37,37,38,38,39,39,40,40,41,41,42,42,43,43,44,44,45,45,46,46,47,47,48,48,49,49,50,50,52,52,54,54,55,55,56,56,57,57,58,58,59,59,60,60,61,61,62,62],"right_children":[2,4,6,8,10,12,14,16,18,20,22,24,26,28,30,32,34,36,38,40,42,44,46,48,50,52,54,56,58,60,62,64,66,68,70,72,74,76,78,80,82,84,86,88,90,92,94,96,98,100,102,-1,104,-1,106,108,110,112,114,116,118,120,122,-1,-1,-1,-1,-1,-1,-1,-1,-1,-1,-1,-1,-1,-1,-1,-1,-1,-1,-1,-1,-1,-1,-1,-1,-1,-1,-1,-1,-1,-1,-1,-1,-1,-1,-1,-1,-1,-1,-1,-1,-1,-1,-1,-1,-1,-1,-1,-1,-1,-1,-1,-1,-1,-1,-1,-1,-1,-1,-1,-1],"split_conditions":[8.009511E-1,-1.3352802E-1,2.121504E0,-5.553248E-1,2.9319668E-1,1.4333647E0,7.5096345E-1,-1.8115287E0,-4.4528353E-1,7.5096345E-1,1.1266837E0,1.4955773E0,1.7371469E0,2.8540103E0,2.2210567E0,-5.78856E-1,-7.201418E-1,-1.3246319E0,-3.4025908E-1,1.3494139E-2,4.5222625E-2,9.405357E-1,5.0076526E-1,4.50296E-1,-1.0456291E0,1.0652198E0,1.9491658E0,2.2210567E0,-3.449821E-1,2.1570075E0,2.3893397E0,-6.6020614E-1,-2.2918928E0,6.295407E-2,-7.1286064E-1,-1.7794967E-1,-4.8340946E-1,2.0051394E0,1.5517055E0,-3.694585E-2,-1.4084218E0,-1.137813E-1,1.4495161E-1,-6.533529E-1,6.8134433E-1,1.2488029E0,5.4542154E-1,4.1786912E-1,6.002713E-1,-1.1115702E0,1.2678626E0,7.953305E-1,1.3341982E0,4.017845E0,1.5248505E0,2.1919026E0,2.3893397E0,-8.3547544E-1,-3.18176E-1,8.357008E-1,1.0568595E0,1.5517055E0,1.5517055E0,-7.7744395E-1,-3.9589643E-1,-2.6210945E0,-7.2201437E-1,-5.4477847E-1,-4.4359967E-1,-1.2869018E-1,-3.9115447E-1,-4.1175872E-1,-1.1364497E0,-4.337822E-1,-2.773564E-1,-2.327787E-1,-9.0726787E-1,-7.7267796E-2,2.9823637E-1,-5.9280615E-2,-4.0084437E-1,-2.3383237E-1,8.746878E-2,6.842776E-1,1.8788874E-2,5.267883E-1,6.345537E-2,1.3641329E-1,4.278273E-1,-1.054596E-1,-7.998219E-1,9.7857666E-1,1.7632999E-1,1.604487E0,8.6389995E-1,5.5628514E-1,-4.9654543E-1,1.8236344E0,6.3564336E-1,7.0403117E-1,-9.2994493E-1,1.150194E0,-3.2351482E-1,2.425545E0,1.112789E0,2.0309763E0,6.225605E-1,1.3962878E0,2.944144E0,1.4667578E-1,1.5584575E0,8.506714E-1,3.5166113E0,-1.6081177E0,2.526291E0,1.6416962E0,3.7594604E-1,2.8240197E0,7.350141E0,7.3431945E-1,1.8195145E0,2.356659E0,4.4140215E0],"split_indices":[0,0,0,0,0,1,1,1,1,1,1,0,0,0,0,0,0,1,0,0,0,1,0,1,1,0,0,0,1,0,0,0,1,1,0,0,0,1,1,0,1,0,0,1,0,1,0,1,1,1,1,0,0,0,1,0,0,1,1,1,1,1,1,0,0,0,0,0,0,0,0,0,0,0,0,0,0,0,0,0,0,0,0,0,0,0,0,0,0,0,0,0,0,0,0,0,0,0,0,0,0,0,0,0,0,0,0,0,0,0,0,0,0,0,0,0,0,0,0,0,0,0,0],"split_type":[0,0,0,0,0,0,0,0,0,0,0,0,0,0,0,0,0,0,0,0,0,0,0,0,0,0,0,0,0,0,0,0,0,0,0,0,0,0,0,0,0,0,0,0,0,0,0,0,0,0,0,0,0,0,0,0,0,0,0,0,0,0,0,0,0,0,0,0,0,0,0,0,0,0,0,0,0,0,0,0,0,0,0,0,0,0,0,0,0,0,0,0,0,0,0,0,0,0,0,0,0,0,0,0,0,0,0,0,0,0,0,0,0,0,0,0,0,0,0,0,0,0,0],"sum_hessian":[6.978E3,5.587E3,1.391E3,4.389E3,1.198E3,8.99E2,4.92E2,3.054E3,1.335E3,8.15E2,3.83E2,8.32E2,6.7E1,4.04E2,8.8E1,1.5E2,2.904E3,4.31E2,9.04E2,6.08E2,2.07E2,3.28E2,5.5E1,3.98E2,4.34E2,5E1,1.7E1,3.75E2,2.9E1,1E1,7.8E1,1.44E2,6E0,1.661E3,1.243E3,1.26E2,3.05E2,7.32E2,1.72E2,2.7E2,3.38E2,1.35E2,7.2E1,3.13E2,1.5E1,2.7E1,2.8E1,2.88E2,1.1E2,5.4E1,3.8E2,1.6E1,3.4E1,1E1,7E0,9.9E1,2.76E2,1.5E1,1.4E1,3E0,7E0,3E1,4.8E1,8.9E1,5.5E1,3E0,3E0,7.89E2,8.72E2,7.6E1,1.167E3,1.2E2,6E0,8.4E1,2.21E2,7.25E2,7E0,1.53E2,1.9E1,2.2E2,5E1,3.9E1,2.99E2,8E0,1.27E2,4.6E1,2.6E1,9.3E1,2.2E2,1.2E1,3E0,5E0,2.2E1,3E0,2.5E1,2.82E2,6E0,2.1E1,8.9E1,4.6E1,8E0,3.72E2,8E0,9E0,2.5E1,3E0,4E0,7.4E1,2.5E1,5.2E1,2.24E2,2E0,1.3E1,2E0,1.2E1,1E0,2E0,3E0,4E0,2.5E1,5E0,4.2E1,6E0],"tree_param":{"num_deleted":"0","num_feature":"2","num_nodes":"123","size_leaf_vector":"1"}},{"base_weights":[3.6104113E-2,-6.9043636E-1,2.6881223E0,-9.691916E-1,8.916647E-2,1.9411283E0,3.8877316E0,-1.1391339E0,-7.572405E-1,-2.114499E-1,5.0998116E-1,1.7565596E0,4.4444747E0,3.2622883E0,4.839136E0,-1.3676647E0,-1.0353124E0,-9.086398E-1,-5.6140214E-1,-2.1393213E0,-1.7394099E-1,2.6717693E-1,9.720125E-1,1.9270241E0,-8.914455E-1,3.2614987E0,9.740223E0,3.5529447E0,1.5282775E0,4.5253224E0,1.1164972E1,-4.9265903E-1,-1.3981818E0,-1.0738791E0,-4.9135658E-1,-9.8130226E-1,-4.0309742E-1,-4.7935185E-1,-1.2515715E0,6.0346985E-1,-2.5501516E0,1.9232813E0,-1.9674715E-1,3.640246E-1,-9.2649895E-1,6.9337213E-1,1.7109648E0,1.7384435E0,7.5683537E0,-3.3504663E0,1.4237682E0,6.19088E0,2.9619184E0,1.0670078E1,1.1111755E0,3.041153E0,5.719449E0,2.2696005E-2,4.9144173E0,4.3698025E0,1.024541E1,1.8060975E0,4.077405E0,-5.4819787E-1,3.3165225E-1,-5.6708026E-1,-4.01071E-1,-5.355091E-1,-3.1584257E-1,-1.067345E-1,-6.2213504E-1,-5.5676305E-1,-2.8325388E-1,-2.3286596E-1,6.6576965E-2,-1.653927E-1,4.7562104E-1,-5.8851135E-1,-1.8249309E-1,-1.0379795E0,-3.0483824E-1,6.5961397E-1,1.918541E-1,-6.722243E-1,-4.985551E-2,9.1895774E-2,1.3441892E0,-1.7079768E-1,-1.1853851E0,1.6168113E-1,6.203849E-1,6.7259264E-1,3.302124E-2,4.0262005E-1,7.095307E-1,2.960205E-2,2.4560146E0,-1.7965813E0,-6.7787844E-1,-2.0065918E0,6.915165E-1,4.623047E-1,2.168149E0,9.885493E-1,-5.082596E-1,1.6747139E0,4.0871286E0,8.322135E-1,1.8722188E0,6.8778163E-1,1.9243729E0,4.7759774E-1,-1.1493831E0,-9.304871E-1,1.8843331E0,1.5514108E0,1.1516267E0,1.3092103E0,3.8134952E0],"categories":[],"categories_nodes":[],"categories_segments":[],"categories_sizes":[],"default_left":[0,0,0,0,0,0,0,0,0,0,0,0,0,0,0,0,0,0,0,0,0,0,0,0,0,0,0,0,0,0,0,0,0,0,0,0,0,0,0,0,0,0,0,0,0,0,0,0,0,0,0,0,0,0,0,0,0,0,0,0,0,0,0,0,0,0,0,0,0,0,0,0,0,0,0,0,0,0,0,0,0,0,0,0,0,0,0,0,0,0,0,0,0,0,0,0,0,0,0,0,0,0,0,0,0,0,0,0,0,0,0,0,0,0,0,0,0,0,0],"id":13,"left_children":[1,3,5,7,9,11,13,15,17,19,21,23,25,27,29,31,33,35,37,39,41,43,45,47,49,51,53,55,57,59,61,63,65,67,69,71,73,75,77,-1,79,81,83,85,87,89,91,93,95,97,99,101,103,105,-1,107,109,111,113,115,117,-1,-1,-1,-1,-1,-1,-1,-1,-1,-1,-1,-1,-1,-1,-1,-1,-1,-1,-1,-1,-1,-1,-1,-1,-1,-1,-1,-1,-1,-1,-1,-1,-1,-1,-1,-1,-1,-1,-1,-1,-1,-1,-1,-1,-1,-1,-1,-1,-1,-1,-1,-1,-1,-1,-1,-1,-1,-1],"loss_changes":[1.3448982E4,1.1907739E3,1.337502E3,1.445122E2,1.827793E2,4.2050317E2,3.263662E2,5.1683594E1,5.2829834E1,6.058723E1,6.727457E1,3.9217114E2,3.62911E2,1.709707E2,3.9811475E2,1.789624E1,3.1842407E1,3.681598E1,4.396675E1,3.2414757E1,3.998131E1,4.6116745E1,4.1435364E1,8.5174927E2,3.065077E2,2.817517E1,2.2220581E1,3.141372E2,2.6499017E2,1.4827002E2,4.300415E1,5.5345634E1,1.7736572E1,1.969812E1,2.1574081E1,2.698059E1,3.0256248E1,1.0561862E2,3.672119E1,0E0,1.7418633E1,1.776207E0,5.0852177E1,8.5808464E1,3.0161612E1,3.1152496E1,4.7358368E1,1.9255957E2,1.192854E2,6.1292786E1,2.1559967E2,8.137131E0,8.3164246E1,5.919409E1,0E0,1.9121826E2,1.1869092E2,2.298763E2,1.9476917E2,7.081641E1,1.7050293E1,0E0,0E0,0E0,0E0,0E0,0E0,0E0,0E0,0E0,0E0,0E0,0E0,0E0,0E0,0E0,0E0,0E0,0E0,0E0,0E0,0E0,0E0,0E0,0E0,0E0,0E0,0E0,0E0,0E0,0E0,0E0,0E0,0E0,0E0,0E0,0E0,0E0,0E0,0E0,0E0,0E0,0E0,0E0,0E0,0E0,0E0,0E0,0E0,0E0,0E0,0E0,0E0,0E0,0E0,0E0,0E0,0E0,0E0],"parents":[2147483647,0,0,1,1,2,2,3,3,4,4,5,5,6,6,7,7,8,8,9,9,10,10,11,11,12,12,13,13,14,14,15,15,16,16,17,17,18,18,19,19,20,20,21,21,22,22,23,23,24,24,25,25,26,26,27,27,28,28,29,29,30,30,31,31,32,32,33,33,34,34,35,35,36,36,37,37,38,38,40,40,41,41,42,42,43,43,44,44,45,45,46,46,47,47,48,48,49,49,50,50,51,51,52,52,53,53,55,55,56,56,57,57,58,58,59,59,60,60],"right_children":[2,4,6,8,10,12,14,16,18,20,22,24,26,28,30,32,34,36,38,40,42,44,46,48,50,52,54,56,58,60,62,64,66,68,70,72,74,76,78,-1,80,82,84,86,88,90,92,94,96,98,100,102,104,106,-1,108,110,112,114,116,118,-1,-1,-1,-1,-1,-1,-1,-1,-1,-1,-1,-1,-1,-1,-1,-1,-1,-1,-1,-1,-1,-1,-1,-1,-1,-1,-1,-1,-1,-1,-1,-1,-1,-1,-1,-1,-1,-1,-1,-1,-1,-1,-1,-1,-1,-1,-1,-1,-1,-1,-1,-1,-1,-1,-1,-1,-1,-1],"split_conditions":[6.421577E-1,-3.7497902E-1,1.9812146E0,-6.459405E-1,5.1062573E-2,1.4333647E0,1.0458224E-1,-5.359615E-1,1.5609716E-1,-1.8115287E0,4.9274418E-1,1.8906622E0,1.7371469E0,-7.057361E-2,2.7799265E0,-2.398073E0,1.7062513E0,-4.1730633E-1,-4.116709E-1,-3.704265E-1,-1.707082E0,3.2951045E-1,5.0076526E-1,1.8433632E0,1.9491658E0,1.4523731E0,1.8906622E0,-3.039941E-1,2.6858344E0,1.7062513E0,3.2951045E-1,-6.6020614E-1,-1.8726953E0,-8.3733064E-1,-6.6020614E-1,-2.2918928E0,-4.0985352E-1,-4.248815E-1,-4.0067884E-1,6.0346985E-1,-1.7794967E-1,-3.694585E-2,-1.5710387E0,3.161953E-1,6.273231E-1,1.7062513E0,6.073219E-1,1.4033892E0,-1.7695421E0,-9.327158E-1,-1.284352E0,9.954125E-1,1.6555388E0,1.5731142E0,1.1111755E0,2.8540103E0,2.1919026E0,2.5195174E0,-4.592458E-2,2.2210567E0,2.3280218E0,1.8060975E0,4.077405E0,-5.4819787E-1,3.3165225E-1,-5.6708026E-1,-4.01071E-1,-5.355091E-1,-3.1584257E-1,-1.067345E-1,-6.2213504E-1,-5.5676305E-1,-2.8325388E-1,-2.3286596E-1,6.6576965E-2,-1.653927E-1,4.7562104E-1,-5.8851135E-1,-1.8249309E-1,-1.0379795E0,-3.0483824E-1,6.5961397E-1,1.918541E-1,-6.722243E-1,-4.985551E-2,9.1895774E-2,1.3441892E0,-1.7079768E-1,-1.1853851E0,1.6168113E-1,6.203849E-1,6.7259264E-1,3.302124E-2,4.0262005E-1,7.095307E-1,2.960205E-2,2.4560146E0,-1.7965813E0,-6.7787844E-1,-2.0065918E0,6.915165E-1,4.623047E-1,2.168149E0,9.885493E-1,-5.082596E-1,1.6747139E0,4.0871286E0,8.322135E-1,1.8722188E0,6.8778163E-1,1.9243729E0,4.7759774E-1,-1.1493831E0,-9.304871E-1,1.8843331E0,1.5514108E0,1.1516267E0,1.3092103E0,3.8134952E0],"split_indices":[0,0,0,0,0,1,1,1,1,1,1,0,0,1,0,1,1,0,0,0,1,1,0,0,0,1,0,1,0,1,1,0,1,0,0,1,1,0,0,0,0,0,1,1,0,1,0,0,1,1,1,0,0,1,0,0,0,0,1,0,0,0,0,0,0,0,0,0,0,0,0,0,0,0,0,0,0,0,0,0,0,0,0,0,0,0,0,0,0,0,0,0,0,0,0,0,0,0,0,0,0,0,0,0,0,0,0,0,0,0,0,0,0,0,0,0,0,0,0],"split_type":[0,0,0,0,0,0,0,0,0,0,0,0,0,0,0,0,0,0,0,0,0,0,0,0,0,0,0,0,0,0,0,0,0,0,0,0,0,0,0,0,0,0,0,0,0,0,0,0,0,0,0,0,0,0,0,0,0,0,0,0,0,0,0,0,0,0,0,0,0,0,0,0,0,0,0,0,0,0,0,0,0,0,0,0,0,0,0,0,0,0,0,0,0,0,0,0,0,0,0,0,0,0,0,0,0,0,0,0,0,0,0,0,0,0,0,0,0,0,0],"sum_hessian":[6.978E3,5.478E3,1.5E3,4.035E3,1.443E3,9.26E2,5.74E2,2.237E3,1.798E3,8.42E2,6.01E2,8.64E2,6.2E1,3.49E2,2.25E2,6.95E2,1.542E3,1.012E3,7.86E2,1.5E1,8.27E2,3.95E2,2.06E2,8.12E2,5.2E1,5.2E1,1E1,2.98E2,5.1E1,2.16E2,9E0,2.4E1,6.71E2,1.439E3,1.03E2,8.84E2,1.28E2,7.04E2,8.2E1,1E0,1.4E1,8E0,8.19E2,3.66E2,2.9E1,1.51E2,5.5E1,7.87E2,2.5E1,2.5E1,2.7E1,3E0,4.9E1,8E0,2E0,2.43E2,5.5E1,3.6E1,1.5E1,2.12E2,4E0,4E0,5E0,1.3E1,1.1E1,7.1E1,6E2,3.9E1,1.4E3,9.6E1,7E0,3.4E1,8.5E2,8E1,4.8E1,6.81E2,2.3E1,3.8E1,4.4E1,8E0,6E0,6E0,2E0,1.1E1,8.08E2,3.62E2,4E0,2.7E1,2E0,1.37E2,1.4E1,4.1E1,1.4E1,4.84E2,3.03E2,2E0,2.3E1,6E0,1.9E1,2E0,2.5E1,1E0,2E0,4.6E1,3E0,4E0,4E0,2.26E2,1.7E1,1E1,4.5E1,2.6E1,1E1,2E0,1.3E1,8.1E1,1.31E2,2E0,2E0],"tree_param":{"num_deleted":"0","num_feature":"2","num_nodes":"119","size_leaf_vector":"1"}},{"base_weights":[2.8973218E-2,-4.3414903E-1,2.1395488E0,-6.486258E-1,2.7145934E-1,1.8261696E0,3.4059193E0,-7.853382E-1,-4.6585235E-1,4.0535048E-2,6.333108E-1,1.3058348E0,2.4345245E0,3.0182412E0,6.0223036E0,-1.1964674E0,-7.560878E-1,-1.1158546E0,-4.295001E-1,-2.4346886E-2,8.164151E-1,7.2048444E-1,-9.2418563E-1,1.3590683E0,-2.9872916E0,1.9678938E0,2.975165E0,4.932168E0,2.4341311E0,9.563286E0,4.591047E0,-1.4793439E0,-1.0415806E0,-1.041301E0,-7.2096086E-1,4.5175195E-1,-1.4234866E0,-4.6569785E-1,5.0225362E-2,-4.0167993E-1,6.692336E-2,2.8689098E0,6.659752E-1,-2.411378E-1,8.4675413E-1,3.043681E0,-1.3464707E0,1.521907E0,2.4398063E-1,-1.5369415E-1,-3.3144023E0,2.257289E0,1.0042078E0,5.4548697E0,2.456937E0,8.760064E0,3.4928308E0,-2.8143616E0,3.1978657E0,5.3455443E0,3.7333925E0,-2.0236635E0,6.531776E0,-4.693733E-1,-3.1093174E-1,-3.769044E-1,-2.7323458E-1,-8.290672E-2,-3.3370247E-1,-2.2402263E-1,-1.1010387E-1,3.6115718E-1,-4.7822163E-1,-9.0730494E-1,-2.163084E-1,-1.7733029E-1,-9.414834E-2,-2.8372073E-1,1.0732103E-1,-2.9191142E-1,-3.954702E-2,4.0943302E-2,-1.8633614E-1,1.9230996E-1,1.0193573E0,-9.010187E-2,3.261783E-1,2.2350448E-1,-3.197006E-1,8.096512E-1,2.4041906E-1,-4.4233706E-2,1.4138901E0,-8.3172184E-1,1.6444626E-1,3.9573824E-1,2.1618023E0,-8.4953344E-1,3.6232707E-1,-1.1659265E0,-4.3407288E-1,5.7465255E-1,1.448036E0,-3.4893316E-1,9.6308905E-1,1.1369493E0,3.0086682E0,-3.2910413E-1,8.517039E-1,3.4426713E0,1.1038133E0,-2.981923E0,1.2373545E0,-3.773707E0,1.6319275E-2,1.4317545E0,7.8899616E-1,2.5456789E0,-1.0821991E0,4.329743E0,1.482156E0],"categories":[],"categories_nodes":[],"categories_segments":[],"categories_sizes":[],"default_left":[0,0,0,0,0,0,0,0,0,0,0,0,0,0,0,0,0,0,0,0,0,0,0,0,0,0,0,0,0,0,0,0,0,0,0,0,0,0,0,0,0,0,0,0,0,0,0,0,0,0,0,0,0,0,0,0,0,0,0,0,0,0,0,0,0,0,0,0,0,0,0,0,0,0,0,0,0,0,0,0,0,0,0,0,0,0,0,0,0,0,0,0,0,0,0,0,0,0,0,0,0,0,0,0,0,0,0,0,0,0,0,0,0,0,0,0,0,0,0,0,0],"id":14,"left_children":[1,3,5,7,9,11,13,15,17,19,21,23,25,27,29,31,33,35,37,39,41,43,45,47,49,51,53,55,57,59,61,63,65,67,69,71,73,75,77,79,81,83,85,87,89,91,93,95,97,-1,99,101,103,105,107,109,111,113,115,117,-1,-1,119,-1,-1,-1,-1,-1,-1,-1,-1,-1,-1,-1,-1,-1,-1,-1,-1,-1,-1,-1,-1,-1,-1,-1,-1,-1,-1,-1,-1,-1,-1,-1,-1,-1,-1,-1,-1,-1,-1,-1,-1,-1,-1,-1,-1,-1,-1,-1,-1,-1,-1,-1,-1,-1,-1,-1,-1,-1,-1],"loss_changes":[6.8225835E3,8.664269E2,4.9222852E2,1.09328735E2,1.11527336E2,3.1621802E2,2.3337329E2,2.9279907E1,4.396704E1,4.1097805E1,7.126761E1,1.2884149E2,1.1120264E2,2.317063E2,1.1320422E2,5.6884155E0,2.275293E1,4.838542E1,3.0985138E1,2.5994099E1,1.7542332E1,6.00661E1,5.1014217E1,9.76817E1,3.9691315E0,6.801245E1,2.6031384E2,2.4488416E2,6.864289E2,3.0699097E1,5.720906E2,4.9243927E-1,1.9457779E0,1.3549835E1,1.8815918E1,2.8076508E1,9.115619E1,3.1391083E1,3.892827E1,2.2536884E1,2.9181465E1,2.5355835E0,2.4752232E1,4.795451E1,3.4463593E1,1.6675615E1,7.176163E1,5.333782E2,2.1092415E2,0E0,7.861481E-1,1.6024768E2,2.9061176E2,2.3616553E2,2.4481665E2,1.3713342E2,3.6343216E2,6.169584E2,1.1979138E2,1.7117276E2,0E0,0E0,1.9270886E2,0E0,0E0,0E0,0E0,0E0,0E0,0E0,0E0,0E0,0E0,0E0,0E0,0E0,0E0,0E0,0E0,0E0,0E0,0E0,0E0,0E0,0E0,0E0,0E0,0E0,0E0,0E0,0E0,0E0,0E0,0E0,0E0,0E0,0E0,0E0,0E0,0E0,0E0,0E0,0E0,0E0,0E0,0E0,0E0,0E0,0E0,0E0,0E0,0E0,0E0,0E0,0E0,0E0,0E0,0E0,0E0,0E0,0E0],"parents":[2147483647,0,0,1,1,2,2,3,3,4,4,5,5,6,6,7,7,8,8,9,9,10,10,11,11,12,12,13,13,14,14,15,15,16,16,17,17,18,18,19,19,20,20,21,21,22,22,23,23,24,24,25,25,26,26,27,27,28,28,29,29,30,30,31,31,32,32,33,33,34,34,35,35,36,36,37,37,38,38,39,39,40,40,41,41,42,42,43,43,44,44,45,45,46,46,47,47,48,48,50,50,51,51,52,52,53,53,54,54,55,55,56,56,57,57,58,58,59,59,62,62],"right_children":[2,4,6,8,10,12,14,16,18,20,22,24,26,28,30,32,34,36,38,40,42,44,46,48,50,52,54,56,58,60,62,64,66,68,70,72,74,76,78,80,82,84,86,88,90,92,94,96,98,-1,100,102,104,106,108,110,112,114,116,118,-1,-1,120,-1,-1,-1,-1,-1,-1,-1,-1,-1,-1,-1,-1,-1,-1,-1,-1,-1,-1,-1,-1,-1,-1,-1,-1,-1,-1,-1,-1,-1,-1,-1,-1,-1,-1,-1,-1,-1,-1,-1,-1,-1,-1,-1,-1,-1,-1,-1,-1,-1,-1,-1,-1,-1,-1,-1,-1,-1,-1],"split_conditions":[9.6922725E-1,-1.3352802E-1,2.471257E0,-6.2461615E-1,2.9319668E-1,1.0458224E-1,8.653768E-1,-8.289799E-1,-1.7305232E0,1.3211552E0,9.02672E-1,9.579967E-2,1.7690184E0,2.5195174E0,9.9638844E-1,-5.132748E-1,-1.4084218E0,-6.127811E-1,1.4996555E0,-9.717372E-1,-1.137813E-1,-1.062161E0,-1.707082E0,2.2210567E0,1.0131596E0,1.6555388E0,1.8906622E0,-9.327158E-1,2.5668044E0,2.5668044E0,1.0253145E0,-8.30676E-1,-8.3733064E-1,-2.398073E0,1.6025289E0,-1.8726953E0,-5.5959064E-1,-4.6465784E-1,-5.852897E-1,-4.878562E-2,1.4495161E-1,1.3461676E0,-5.6263514E-2,5.4542154E-1,-9.93533E-1,-1.8115287E0,1.1712208E0,2.1919026E0,-1.4305352E0,-1.5369415E-1,2.0475225E0,1.6046354E0,7.8779525E-1,8.5106057E-1,1.9491658E0,2.4920583E0,-8.526332E-1,-1.1404774E0,-9.190592E-1,9.2834127E-1,3.7333925E0,-2.0236635E0,1.142354E0,-4.693733E-1,-3.1093174E-1,-3.769044E-1,-2.7323458E-1,-8.290672E-2,-3.3370247E-1,-2.2402263E-1,-1.1010387E-1,3.6115718E-1,-4.7822163E-1,-9.0730494E-1,-2.163084E-1,-1.7733029E-1,-9.414834E-2,-2.8372073E-1,1.0732103E-1,-2.9191142E-1,-3.954702E-2,4.0943302E-2,-1.8633614E-1,1.9230996E-1,1.0193573E0,-9.010187E-2,3.261783E-1,2.2350448E-1,-3.197006E-1,8.096512E-1,2.4041906E-1,-4.4233706E-2,1.4138901E0,-8.3172184E-1,1.6444626E-1,3.9573824E-1,2.1618023E0,-8.4953344E-1,3.6232707E-1,-1.1659265E0,-4.3407288E-1,5.7465255E-1,1.448036E0,-3.4893316E-1,9.6308905E-1,1.1369493E0,3.0086682E0,-3.2910413E-1,8.517039E-1,3.4426713E0,1.1038133E0,-2.981923E0,1.2373545E0,-3.773707E0,1.6319275E-2,1.4317545E0,7.8899616E-1,2.5456789E0,-1.0821991E0,4.329743E0,1.482156E0],"split_indices":[0,0,0,0,0,1,1,0,1,1,0,1,0,0,1,1,1,0,1,1,0,1,1,0,0,0,0,1,0,0,1,0,0,1,1,1,0,0,0,0,0,1,0,0,1,1,1,0,1,0,0,0,1,1,0,0,1,1,1,1,0,0,1,0,0,0,0,0,0,0,0,0,0,0,0,0,0,0,0,0,0,0,0,0,0,0,0,0,0,0,0,0,0,0,0,0,0,0,0,0,0,0,0,0,0,0,0,0,0,0,0,0,0,0,0,0,0,0,0,0,0],"split_type":[0,0,0,0,0,0,0,0,0,0,0,0,0,0,0,0,0,0,0,0,0,0,0,0,0,0,0,0,0,0,0,0,0,0,0,0,0,0,0,0,0,0,0,0,0,0,0,0,0,0,0,0,0,0,0,0,0,0,0,0,0,0,0,0,0,0,0,0,0,0,0,0,0,0,0,0,0,0,0,0,0,0,0,0,0,0,0,0,0,0,0,0,0,0,0,0,0,0,0,0,0,0,0,0,0,0,0,0,0,0,0,0,0,0,0,0,0,0,0,0,0],"sum_hessian":[6.978E3,5.723E3,1.255E3,4.389E3,1.334E3,1.008E3,2.47E2,2.509E3,1.88E3,8.15E2,5.19E2,5.45E2,4.63E2,2.17E2,3E1,1.64E2,2.345E3,9.8E1,1.782E3,7.53E2,6.2E1,4.92E2,2.7E1,5.39E2,6E0,2.51E2,2.12E2,4.9E1,1.68E2,7E0,2.3E1,5.5E1,1.09E2,2.54E2,2.091E3,1.6E1,8.2E1,1.657E3,1.25E2,1.46E2,6.07E2,3E0,5.9E1,5.7E1,4.35E2,2E0,2.5E1,4.7E2,6.9E1,1E0,5E0,1.92E2,5.9E1,3.5E1,1.77E2,1.2E1,3.7E1,2.1E1,1.47E2,4E0,3E0,3E0,2E1,4.4E1,1.1E1,3.8E1,7.1E1,2.2E1,2.32E2,1.948E3,1.43E2,1.2E1,4E0,2.4E1,5.8E1,9.06E2,7.51E2,2.9E1,9.6E1,4.6E1,1E2,5.52E2,5.5E1,1E0,2E0,1.8E1,4.1E1,2.6E1,3.1E1,9E0,4.26E2,1E0,1E0,1.4E1,1.1E1,4.55E2,1.5E1,1.6E1,5.3E1,3E0,2E0,1.71E2,2.1E1,3E1,2.9E1,2.7E1,8E0,1.7E1,1.6E2,7E0,5E0,1E0,3.6E1,4E0,1.7E1,3.7E1,1.1E2,3E0,1E0,2E0,1.8E1],"tree_param":{"num_deleted":"0","num_feature":"2","num_nodes":"121","size_leaf_vector":"1"}},{"base_weights":[2.2662744E-2,-3.5293502E-1,1.3308477E0,-4.6612412E-1,4.5784697E-2,9.8086035E-1,2.084206E0,-5.771739E-1,-3.643731E-1,1.3904931E-2,1.1727477E0,8.692495E-1,2.4856377E0,1.878904E0,4.2440243E0,-7.213831E-1,-5.1403725E-1,-3.9070943E-1,6.643912E-2,2.8195739E-2,-2.0617867E0,7.811394E-1,2.2988815E0,5.759523E-2,9.828709E-1,8.530182E0,1.915742E0,2.798616E0,1.5960054E0,9.950694E0,3.203915E0,-6.828551E-1,-1.2552614E0,-5.766042E-1,-3.8604876E-1,-3.7422925E-1,-1.1112845E0,2.7575767E0,-6.5376036E-2,-5.19165E-1,7.4123226E-2,-1.114769E-1,-3.2096772E0,1.1131359E0,-2.7901348E-1,8.992136E-1,8.510399E-1,-1.9518642E-1,5.0193686E0,6.3251166E0,9.3850255E-1,3.0676118E-1,2.9481611E0,4.5085615E-1,2.756935E0,2.0239258E-1,3.6505072E0,-1.729323E0,2.1209881E0,-1.798706E-1,4.6127152E0,1.3571596E0,2.2336786E0,-2.5347847E-1,-1.5686736E-1,-5.4884917E-1,-1.3553372E-1,-1.6510981E-1,-2.3841953E-1,-8.261313E-2,-1.8567412E-1,-1.3213016E-1,-6.197438E-2,3.9237615E-1,-3.931449E-1,-7.9163745E-2,1.3002824E0,-1.1513939E0,8.609967E-3,-5.9805516E-2,-6.723164E-1,-2.2820087E-2,6.5362364E-2,-4.03978E-1,5.3908086E-1,-1.0927792E0,-2.2169954E-1,-2.259781E-1,4.0870833E-1,9.050629E-2,-3.461533E-1,4.400963E-1,4.7018435E-2,1.11343525E-1,-1.0745082E0,2.4201477E0,4.4360507E-1,6.603699E-2,2.1917787E0,3.017377E-1,-2.2071601E-1,5.198027E-1,-4.3637866E-1,4.8608395E-1,1.6674813E0,-1.298468E0,1.0763123E0,2.2438715E0,8.132147E-1,2.6969454E-1,-7.6050234E-1,6.654374E-1,-1.6937805E0,1.1363088E0,4.0327054E-2],"categories":[],"categories_nodes":[],"categories_segments":[],"categories_sizes":[],"default_left":[0,0,0,0,0,0,0,0,0,0,0,0,0,0,0,0,0,0,0,0,0,0,0,0,0,0,0,0,0,0,0,0,0,0,0,0,0,0,0,0,0,0,0,0,0,0,0,0,0,0,0,0,0,0,0,0,0,0,0,0,0,0,0,0,0,0,0,0,0,0,0,0,0,0,0,0,0,0,0,0,0,0,0,0,0,0,0,0,0,0,0,0,0,0,0,0,0,0,0,0,0,0,0,0,0,0,0,0,0,0,0,0,0,0,0],"id":15,"left_children":[1,3,5,7,9,11,13,15,17,19,21,23,25,27,29,31,33,35,37,39,41,43,45,47,49,51,53,55,57,59,61,63,65,67,69,71,73,75,77,79,81,83,85,87,89,-1,91,93,95,97,99,-1,-1,101,103,105,107,109,111,-1,-1,113,-1,-1,-1,-1,-1,-1,-1,-1,-1,-1,-1,-1,-1,-1,-1,-1,-1,-1,-1,-1,-1,-1,-1,-1,-1,-1,-1,-1,-1,-1,-1,-1,-1,-1,-1,-1,-1,-1,-1,-1,-1,-1,-1,-1,-1,-1,-1,-1,-1,-1,-1,-1,-1],"loss_changes":[3.4296108E3,2.4476526E2,4.0848364E2,4.7518433E1,4.3096474E1,1.7670557E2,2.106294E2,1.8002869E1,2.506662E1,3.470488E1,1.2757366E1,9.1519104E1,2.3512576E2,1.1313721E2,2.174123E2,1.1731201E1,1.1044434E1,2.4284546E1,4.558606E1,2.9224747E1,1.7552135E1,9.461724E0,5.5396156E0,1.5525186E2,2.0051392E2,4.837677E1,8.2550156E1,2.3148956E2,6.111853E2,3.526313E2,2.7972894E2,1.4413727E1,1.7629005E1,4.959656E0,1.1813339E1,2.2495636E1,2.3881496E1,2.972726E1,4.3764225E1,4.9114716E1,2.316109E1,1.1848189E1,2.6561546E0,1.03292675E1,3.9042065E0,0E0,1.4807205E0,2.2763986E2,5.2818832E1,4.0306732E1,9.818915E1,0E0,0E0,6.602391E1,1.2791263E2,4.2964288E2,2.6400842E2,1.0392299E2,2.3961353E2,0E0,0E0,7.973227E1,0E0,0E0,0E0,0E0,0E0,0E0,0E0,0E0,0E0,0E0,0E0,0E0,0E0,0E0,0E0,0E0,0E0,0E0,0E0,0E0,0E0,0E0,0E0,0E0,0E0,0E0,0E0,0E0,0E0,0E0,0E0,0E0,0E0,0E0,0E0,0E0,0E0,0E0,0E0,0E0,0E0,0E0,0E0,0E0,0E0,0E0,0E0,0E0,0E0,0E0,0E0,0E0,0E0],"parents":[2147483647,0,0,1,1,2,2,3,3,4,4,5,5,6,6,7,7,8,8,9,9,10,10,11,11,12,12,13,13,14,14,15,15,16,16,17,17,18,18,19,19,20,20,21,21,22,22,23,23,24,24,25,25,26,26,27,27,28,28,29,29,30,30,31,31,32,32,33,33,34,34,35,35,36,36,37,37,38,38,39,39,40,40,41,41,42,42,43,43,44,44,46,46,47,47,48,48,49,49,50,50,53,53,54,54,55,55,56,56,57,57,58,58,61,61],"right_children":[2,4,6,8,10,12,14,16,18,20,22,24,26,28,30,32,34,36,38,40,42,44,46,48,50,52,54,56,58,60,62,64,66,68,70,72,74,76,78,80,82,84,86,88,90,-1,92,94,96,98,100,-1,-1,102,104,106,108,110,112,-1,-1,114,-1,-1,-1,-1,-1,-1,-1,-1,-1,-1,-1,-1,-1,-1,-1,-1,-1,-1,-1,-1,-1,-1,-1,-1,-1,-1,-1,-1,-1,-1,-1,-1,-1,-1,-1,-1,-1,-1,-1,-1,-1,-1,-1,-1,-1,-1,-1,-1,-1,-1,-1,-1,-1],"split_conditions":[6.073219E-1,-2.3480977E-1,2.121504E0,-6.808955E-1,1.7062513E0,1.4333647E0,1.2036232E0,-5.459141E-1,1.5731142E0,1.678127E0,4.0957147E-1,-1.0456291E0,1.4523731E0,2.2210567E0,2.2210567E0,-7.0099777E-1,-7.4464685E-1,-3.1711248E-1,-6.6020614E-1,-1.4305352E0,2.586054E-1,3.3903956E-1,5.4542154E-1,2.080504E0,-1.0150106E0,9.954125E-1,1.6025289E0,-9.066203E-1,2.3280218E0,2.1570075E0,2.5668044E0,-7.6910675E-1,-1.0960307E0,-7.5021297E-1,-7.1286064E-1,-4.6465784E-1,-1.4778866E0,1.6025289E0,-6.5775776E-1,-1.4778866E0,2.6904345E-2,-1.6151479E-1,5.0076526E-1,1.7438071E0,2.090587E0,8.992136E-1,1.7438071E0,1.8906622E0,-1.5395126E0,6.5639204E-1,1.2678626E0,3.0676118E-1,2.9481611E0,1.4955773E0,1.6046354E0,2.1570075E0,2.1570075E0,-6.3446325E-1,1.142354E0,-1.798706E-1,4.6127152E0,2.3280218E0,2.2336786E0,-2.5347847E-1,-1.5686736E-1,-5.4884917E-1,-1.3553372E-1,-1.6510981E-1,-2.3841953E-1,-8.261313E-2,-1.8567412E-1,-1.3213016E-1,-6.197438E-2,3.9237615E-1,-3.931449E-1,-7.9163745E-2,1.3002824E0,-1.1513939E0,8.609967E-3,-5.9805516E-2,-6.723164E-1,-2.2820087E-2,6.5362364E-2,-4.03978E-1,5.3908086E-1,-1.0927792E0,-2.2169954E-1,-2.259781E-1,4.0870833E-1,9.050629E-2,-3.461533E-1,4.400963E-1,4.7018435E-2,1.11343525E-1,-1.0745082E0,2.4201477E0,4.4360507E-1,6.603699E-2,2.1917787E0,3.017377E-1,-2.2071601E-1,5.198027E-1,-4.3637866E-1,4.8608395E-1,1.6674813E0,-1.298468E0,1.0763123E0,2.2438715E0,8.132147E-1,2.6969454E-1,-7.6050234E-1,6.654374E-1,-1.6937805E0,1.1363088E0,4.0327054E-2],"split_indices":[0,0,0,0,1,1,1,1,1,1,0,1,1,0,0,0,0,0,0,1,0,0,0,0,1,0,1,1,0,0,0,0,1,0,0,0,1,1,0,1,0,0,0,1,1,0,1,0,1,0,1,0,0,0,0,0,0,1,1,0,0,0,0,0,0,0,0,0,0,0,0,0,0,0,0,0,0,0,0,0,0,0,0,0,0,0,0,0,0,0,0,0,0,0,0,0,0,0,0,0,0,0,0,0,0,0,0,0,0,0,0,0,0,0,0],"split_type":[0,0,0,0,0,0,0,0,0,0,0,0,0,0,0,0,0,0,0,0,0,0,0,0,0,0,0,0,0,0,0,0,0,0,0,0,0,0,0,0,0,0,0,0,0,0,0,0,0,0,0,0,0,0,0,0,0,0,0,0,0,0,0,0,0,0,0,0,0,0,0,0,0,0,0,0,0,0,0,0,0,0,0,0,0,0,0,0,0,0,0,0,0,0,0,0,0,0,0,0,0,0,0,0,0,0,0,0,0,0,0,0,0,0,0],"sum_hessian":[6.978E3,5.422E3,1.556E3,4.223E3,1.199E3,1.064E3,4.92E2,2.017E3,2.206E3,1.167E3,3.2E1,9.92E2,7.2E1,4.51E2,4.1E1,6.11E2,1.406E3,2.079E3,1.27E2,1.16E3,7E0,2.5E1,7E0,1.22E2,8.7E2,5E0,6.7E1,1.04E2,3.47E2,5E0,3.6E1,5.72E2,3.9E1,9.42E2,4.64E2,2.034E3,4.5E1,5E0,1.22E2,8.9E1,1.071E3,3E0,4E0,1.9E1,6E0,4E0,3E0,1.17E2,5E0,6E0,8.64E2,1E0,4E0,2.5E1,4.2E1,2.6E1,7.8E1,4.7E1,3E2,2E0,3E0,2.6E1,1E1,2.82E2,2.9E2,2.2E1,1.7E1,8.44E2,9.8E1,3.16E2,1.48E2,1.457E3,5.77E2,3E0,4.2E1,2E0,3E0,2E0,1.2E2,7.6E1,1.3E1,5.24E2,5.47E2,2E0,1E0,3E0,1E0,2E0,1.7E1,4E0,2E0,1E0,2E0,1.01E2,1.6E1,2E0,3E0,1E0,5E0,8.31E2,3.3E1,1.5E1,1E1,3.1E1,1.1E1,1.1E1,1.5E1,1.4E1,6.4E1,1.1E1,3.6E1,2.97E2,3E0,8E0,1.8E1],"tree_param":{"num_deleted":"0","num_feature":"2","num_nodes":"115","size_leaf_vector":"1"}},{"base_weights":[1.8220872E-2,-2.1845828E-1,1.0968301E0,-3.128316E-1,1.4756514E-1,7.6132333E-1,1.5388376E0,-3.8871112E-1,-2.1940827E-1,7.735279E-2,5.8257943E-1,2.678155E-1,1.035389E0,1.4412947E0,6.574237E0,-7.197292E-1,-3.7323958E-1,1.5062799E-1,-2.5701207E-1,1.0072916E-1,-1.4831116E0,-4.3367767E-1,7.0388114E-1,7.123946E-1,-1.7869362E0,-2.0883865E0,1.0882694E0,1.0431589E0,1.8237702E0,1.9244181E0,2.248842E0,-3.3410573E-1,-6.36634E-1,-4.0923682E-1,-2.6599824E-1,1.6058722E0,5.167541E-2,-1.6793697E0,-2.350728E-1,-2.8287613E-1,1.7650151E-1,1.5288631E0,-3.6609683E0,-1.0937228E0,2.0373078E-1,1.5321466E0,5.757904E-1,3.1360456E-1,5.2683034E0,2.9221802E0,-3.350435E0,-5.937866E0,1.8920106E0,2.5312064E0,9.908738E-1,1.5852356E0,7.2719157E-1,4.647245E0,1.529418E0,8.066254E-1,5.9362795E-2,-2.670841E-1,-1.5796778E-1,-1.4691786E-1,-1.0987318E-1,-6.408546E-2,-1.5962699E-1,1.7102738E-1,5.268058E-1,-7.0086366E-1,4.892618E-2,-3.0502284E0,-7.6231755E-2,-2.3313849E-1,-6.006879E-2,-3.0630777E-2,-4.183551E-1,4.6907344E-1,4.319643E-2,7.5386965E-1,1.8980074E-1,-1.2323325E0,-1.2977601E-2,-9.1098025E-2,-6.016159E-1,-3.8347375E-2,4.7815934E-1,6.1206117E-2,3.0192927E-1,-4.0272093E-1,1.792789E-1,-4.410988E-1,2.0451958E0,1.1207346E0,-9.041153E-1,-1.6418283E0,-2.3440194E-1,-2.152771E-1,-3.2756836E0,9.1810817E-1,-1.7633927E0,2.65886E-1,7.697458E-1,3.77801E-1,1.0212361E0,-2.013114E-1,3.5516167E-1,7.6474583E-1,1.7628089E0,-3.4945884E-1,5.2035505E-1],"categories":[],"categories_nodes":[],"categories_segments":[],"categories_sizes":[],"default_left":[0,0,0,0,0,0,0,0,0,0,0,0,0,0,0,0,0,0,0,0,0,0,0,0,0,0,0,0,0,0,0,0,0,0,0,0,0,0,0,0,0,0,0,0,0,0,0,0,0,0,0,0,0,0,0,0,0,0,0,0,0,0,0,0,0,0,0,0,0,0,0,0,0,0,0,0,0,0,0,0,0,0,0,0,0,0,0,0,0,0,0,0,0,0,0,0,0,0,0,0,0,0,0,0,0,0,0,0,0,0,0],"id":16,"left_children":[1,3,5,7,9,11,13,15,17,19,21,23,25,27,29,31,33,35,37,39,41,43,45,47,49,51,53,55,57,59,-1,-1,61,63,65,67,69,71,73,75,77,79,81,83,85,-1,87,89,91,93,95,97,-1,99,101,103,105,107,109,-1,-1,-1,-1,-1,-1,-1,-1,-1,-1,-1,-1,-1,-1,-1,-1,-1,-1,-1,-1,-1,-1,-1,-1,-1,-1,-1,-1,-1,-1,-1,-1,-1,-1,-1,-1,-1,-1,-1,-1,-1,-1,-1,-1,-1,-1,-1,-1,-1,-1,-1,-1],"loss_changes":[1.7818689E3,1.9776944E2,1.8508875E2,3.217636E1,3.581286E1,9.656427E1,2.5624622E2,1.2585968E1,2.8452675E1,3.7065117E1,2.0398872E1,2.360424E2,7.8258484E1,7.910889E1,2.8441132E1,2.9246788E0,9.156067E0,2.7133047E1,5.7460167E1,2.9058468E1,1.0399186E2,7.7957554E0,7.9406075E1,3.8352023E2,3.4847467E2,2.9598212E2,6.115454E1,4.3893494E1,2.1728833E2,3.42692E0,0E0,0E0,2.1556969E0,6.032196E0,8.332703E0,8.651409E-1,4.773594E1,3.361526E2,3.4351173E1,3.3015236E1,3.7387108E1,4.583376E0,1.43700485E1,5.8734875E0,4.8127975E0,0E0,2.2688858E1,9.297954E1,1.8747394E2,6.921206E1,1.8655994E2,1.4818028E2,0E0,1.4258177E2,6.789627E1,5.2619263E1,1.0806989E2,4.9473694E1,1.3795862E2,0E0,0E0,0E0,0E0,0E0,0E0,0E0,0E0,0E0,0E0,0E0,0E0,0E0,0E0,0E0,0E0,0E0,0E0,0E0,0E0,0E0,0E0,0E0,0E0,0E0,0E0,0E0,0E0,0E0,0E0,0E0,0E0,0E0,0E0,0E0,0E0,0E0,0E0,0E0,0E0,0E0,0E0,0E0,0E0,0E0,0E0,0E0,0E0,0E0,0E0,0E0,0E0],"parents":[2147483647,0,0,1,1,2,2,3,3,4,4,5,5,6,6,7,7,8,8,9,9,10,10,11,11,12,12,13,13,14,14,15,15,16,16,17,17,18,18,19,19,20,20,21,21,22,22,23,23,24,24,25,25,26,26,27,27,28,28,29,29,32,32,33,33,34,34,35,35,36,36,37,37,38,38,39,39,40,40,41,41,42,42,43,43,44,44,46,46,47,47,48,48,49,49,50,50,51,51,53,53,54,54,55,55,56,56,57,57,58,58],"right_children":[2,4,6,8,10,12,14,16,18,20,22,24,26,28,30,32,34,36,38,40,42,44,46,48,50,52,54,56,58,60,-1,-1,62,64,66,68,70,72,74,76,78,80,82,84,86,-1,88,90,92,94,96,98,-1,100,102,104,106,108,110,-1,-1,-1,-1,-1,-1,-1,-1,-1,-1,-1,-1,-1,-1,-1,-1,-1,-1,-1,-1,-1,-1,-1,-1,-1,-1,-1,-1,-1,-1,-1,-1,-1,-1,-1,-1,-1,-1,-1,-1,-1,-1,-1,-1,-1,-1,-1,-1,-1,-1,-1,-1],"split_conditions":[9.6922725E-1,-7.740207E-2,1.0458224E-1,-6.2461615E-1,1.1266837E0,1.6883407E0,2.7799265E0,-8.325358E-1,-6.0652685E-1,9.02672E-1,-4.878562E-2,1.6046354E0,-1.8726953E0,1.8021266E0,2.2041343E-1,-9.717372E-1,8.357008E-1,-2.0392704E0,-2.2918928E0,-1.0456291E0,-1.3246319E0,1.2488029E0,-3.694585E-2,1.5607635E0,-8.526332E-1,2.6059296E0,1.7371469E0,1.2613289E0,1.8906622E0,1.1736091E-1,2.248842E0,-3.3410573E-1,-8.3990985E-1,